{"learner":{"attributes":{"best_iteration":"99","best_ntree_limit":"100","scikit_learn":"{\"n_estimators\": 100, \"objective\": \"reg:squarederror\", \"max_depth\": null, \"max_leaves\": null, \"max_bin\": null, \"grow_policy\": null, \"learning_rate\": null, \"verbosity\": null, \"booster\": null, \"tree_method\": null, \"gamma\": null, \"min_child_weight\": null, \"max_delta_step\": null, \"subsample\": null, \"sampling_method\": null, \"colsample_bytree\": null, \"colsample_bylevel\": null, \"colsample_bynode\": null, \"reg_alpha\": null, \"reg_lambda\": null, \"scale_pos_weight\": null, \"base_score\": null, \"missing\": NaN, \"num_parallel_tree\": null, \"random_state\": null, \"n_jobs\": null, \"monotone_constraints\": null, \"interaction_constraints\": null, \"importance_type\": null, \"gpu_id\": null, \"validate_parameters\": null, \"predictor\": null, \"enable_categorical\": false, \"feature_types\": null, \"max_cat_to_onehot\": null, \"max_cat_threshold\": null, \"eval_metric\": null, \"early_stopping_rounds\": null, \"callbacks\": null, \"_estimator_type\": \"regressor\"}"},"feature_names":["host_is_superhost","host_total_listings_count","latitude","longitude","accommodates","bathrooms","minimum_nights","maximum_nights","availability_90","number_of_reviews","review_scores_accuracy","calculated_host_listings_count","air_conditioning","bed_linen","tv","coffee_machine","cooking_basics","white_goods","elevator","parking","host_greeting","internet","long_term_stays","private_entrance","host_response_time_a few days or more","host_response_time_unknown","host_response_time_within a day","host_response_time_within a few hours","host_response_time_within an hour","host_response_rate_100%","host_response_rate_50-89%","host_response_rate_90-99%","property_type_Entire condo","property_type_Entire home","property_type_Entire loft","property_type_Entire rental unit","property_type_Entire townhouse","property_type_Private room in condo","property_type_Private room in rental unit","property_type_Room in boutique hotel","property_type_Room in hotel","property_type_Shared room in rental unit","room_type_Entire home/apt","room_type_Hotel room","room_type_Private room","room_type_Shared room","review_scores_rating_0-79/100","time_since_first_review_0-6 months","time_since_first_review_1-2 years","time_since_first_review_2-3 years","time_since_first_review_4+ years","time_since_first_review_6-12 months","time_since_last_review_1+ year","time_since_last_review_2-6 months","time_since_last_review_6-12 months"],"feature_types":["float","float","float","float","float","float","float","float","float","float","float","float","float","float","float","float","float","float","float","float","float","float","float","float","float","float","float","float","float","float","float","float","float","float","float","float","float","float","float","float","float","float","float","float","float","float","float","float","float","float","float","float","float","float","float"],"gradient_booster":{"model":{"gbtree_model_param":{"num_parallel_tree":"1","num_trees":"100","size_leaf_vector":"0"},"tree_info":[0,0,0,0,0,0,0,0,0,0,0,0,0,0,0,0,0,0,0,0,0,0,0,0,0,0,0,0,0,0,0,0,0,0,0,0,0,0,0,0,0,0,0,0,0,0,0,0,0,0,0,0,0,0,0,0,0,0,0,0,0,0,0,0,0,0,0,0,0,0,0,0,0,0,0,0,0,0,0,0,0,0,0,0,0,0,0,0,0,0,0,0,0,0,0,0,0,0,0,0],"trees":[{"base_weights":[-4.9552578E-1,-6.3107514E-1,1.0190864E0,-7.696925E-1,5.3895805E-2,4.922036E-1,1.8173735E0,-8.771292E-1,-5.264791E-1,-2.3259768E-1,7.9991645E-1,3.3956692E-1,1.8333637E0,1.5293386E0,3.0585415E0,-9.7766334E-1,-7.430302E-1,-6.864494E-1,-3.238031E-1,-4.7223938E-1,1.0451417E-1,4.4003946E-1,1.250197E0,8.352155E-2,8.480721E-1,1.0461187E0,2.814831E0,1.3936447E0,3.250332E0,3.242244E0,1.2579216E0,-8.6210287E-1,-1.0263903E0,-7.5610083E-1,6.628793E-1,-5.1761025E-1,-7.6903707E-1,-2.3792832E-1,-6.155833E-1,-1.265957E-1,-5.947766E-1,6.0884005E-1,-2.2314293E-2,2.7499533E-1,1.0966172E0,1.1406423E0,3.3332741E0,1.6071084E-1,-1.0295141E0,1.0177058E0,1.8563499E-1,-1.0090752E0,1.2304009E0,3.1401737E0,1.6730285E-1,1.0382528E0,2.1262848E0,5.065713E0,5.8825606E-1,2.806519E0,3.7810862E0,-5.0406545E-2,2.4763982E0,-1.1299317E0,-8.387787E-1,-1.143062E0,-9.950643E-1,-6.9997543E-1,-9.1901356E-1,1.3256484E0,1.6881303E-1,-5.846903E-1,-2.895204E-1,-7.7349836E-1,2.8815532E0,-2.8950414E-1,2.9009357E-1,-6.3663006E-1,3.0981386E-1,-2.8752196E-1,8.142289E-1,-6.425257E-1,-8.309815E-2,1.678949E-1,3.8420198E0,-1.673332E-1,3.8485417E-1,3.9244935E-1,-1.7646696E-1,8.9021724E-1,2.242698E0,7.655624E-1,1.5289103E0,4.328312E0,7.806274E-1,2.9132375E-1,-2.4021956E-1,-1.0956208E0,3.4511317E-2,1.2351112E0,3.9726937E-1,2.8054997E-2,8.573013E-1,1.4617378E0,1.03254505E-1,1.255975E0,3.5051334E0,-2.8328058E-1,8.547757E-1,8.198787E-1,1.7652031E0,2.2110848E0,-1.21362805E-1,-4.696596E-2,1.1590846E0,2.9088433E0,7.417754E-1,3.8850515E0,1.0673095E-1,-8.916569E-1,2.6008508E-1,3.8752704E0,1.7425903E0],"categories":[],"categories_nodes":[],"categories_segments":[],"categories_sizes":[],"default_left":[1,1,1,1,1,1,1,1,1,1,0,1,1,1,1,1,1,1,1,1,1,1,1,1,1,1,1,1,1,1,1,1,1,1,1,1,1,1,1,1,1,1,1,1,1,1,1,1,1,1,1,0,1,1,1,1,1,0,1,1,1,1,1,0,0,0,0,0,0,0,0,0,0,0,0,0,0,0,0,0,0,0,0,0,0,0,0,0,0,0,0,0,0,0,0,0,0,0,0,0,0,0,0,0,0,0,0,0,0,0,0,0,0,0,0,0,0,0,0,0,0,0,0],"id":0,"left_children":[1,3,5,7,9,11,13,15,17,19,21,23,25,27,29,31,33,35,37,39,41,43,45,47,49,51,53,55,57,59,61,63,65,67,69,71,73,75,77,79,81,83,85,87,89,91,93,95,97,99,101,-1,103,105,107,109,111,-1,113,115,117,119,121,-1,-1,-1,-1,-1,-1,-1,-1,-1,-1,-1,-1,-1,-1,-1,-1,-1,-1,-1,-1,-1,-1,-1,-1,-1,-1,-1,-1,-1,-1,-1,-1,-1,-1,-1,-1,-1,-1,-1,-1,-1,-1,-1,-1,-1,-1,-1,-1,-1,-1,-1,-1,-1,-1,-1,-1,-1,-1,-1,-1],"loss_changes":[9.179815E3,3.8965537E3,1.5439832E3,8.913828E2,1.4766333E3,4.5260596E2,5.172715E2,3.184082E2,3.3891333E2,4.033333E2,3.100913E2,2.5889777E2,1.7167542E2,2.7266846E2,8.655493E1,7.52793E1,1.8696436E2,8.110498E1,1.1551462E2,1.2351428E2,1.3273656E2,1.1532315E2,1.9040564E2,1.1391617E2,7.4650604E1,4.934099E1,8.561005E1,2.8472485E2,4.1263074E2,4.761548E1,4.3167336E1,2.4152344E1,3.361621E1,9.1285645E1,3.0556686E1,2.9253113E1,6.6120605E1,9.725194E1,2.0628204E1,1.1605768E2,5.2573547E1,5.93853E2,9.8023575E1,4.5353516E1,4.8625427E1,1.16791016E2,1.03300385E2,6.49523E1,6.0869827E0,7.099902E1,1.4476191E1,0E0,3.0356873E1,5.6799072E1,3.959308E0,1.16660645E2,6.869397E1,0E0,1.3108139E1,2.7631836E1,4.0841797E1,3.8887231E0,7.618042E0,0E0,0E0,0E0,0E0,0E0,0E0,0E0,0E0,0E0,0E0,0E0,0E0,0E0,0E0,0E0,0E0,0E0,0E0,0E0,0E0,0E0,0E0,0E0,0E0,0E0,0E0,0E0,0E0,0E0,0E0,0E0,0E0,0E0,0E0,0E0,0E0,0E0,0E0,0E0,0E0,0E0,0E0,0E0,0E0,0E0,0E0,0E0,0E0,0E0,0E0,0E0,0E0,0E0,0E0,0E0,0E0,0E0,0E0,0E0,0E0],"parents":[2147483647,0,0,1,1,2,2,3,3,4,4,5,5,6,6,7,7,8,8,9,9,10,10,11,11,12,12,13,13,14,14,15,15,16,16,17,17,18,18,19,19,20,20,21,21,22,22,23,23,24,24,25,25,26,26,27,27,28,28,29,29,30,30,31,31,32,32,33,33,34,34,35,35,36,36,37,37,38,38,39,39,40,40,41,41,42,42,43,43,44,44,45,45,46,46,47,47,48,48,49,49,50,50,52,52,53,53,54,54,55,55,56,56,58,58,59,59,60,60,61,61,62,62],"right_children":[2,4,6,8,10,12,14,16,18,20,22,24,26,28,30,32,34,36,38,40,42,44,46,48,50,52,54,56,58,60,62,64,66,68,70,72,74,76,78,80,82,84,86,88,90,92,94,96,98,100,102,-1,104,106,108,110,112,-1,114,116,118,120,122,-1,-1,-1,-1,-1,-1,-1,-1,-1,-1,-1,-1,-1,-1,-1,-1,-1,-1,-1,-1,-1,-1,-1,-1,-1,-1,-1,-1,-1,-1,-1,-1,-1,-1,-1,-1,-1,-1,-1,-1,-1,-1,-1,-1,-1,-1,-1,-1,-1,-1,-1,-1,-1,-1,-1,-1,-1,-1,-1,-1],"split_conditions":[8.950374E-1,-2.1468583E-1,-2.4272019E-1,2.6401448E-1,1.314986E0,2.352221E0,2.352221E0,-6.706706E-1,-6.706706E-1,2.6401448E-1,5.6508493E-1,-2.5095212E-1,-1.8099904E-1,3.1484456E0,7.312348E-1,1.8674058E-1,3.234371E0,1.8674058E-1,7.995707E-1,-5.296006E-1,-1.044178E-1,4.3461018E0,2.4422417E0,1.1104953E0,5.2395797E-1,-4.3291867E-2,1.2634695E0,1.314986E0,3.293397E0,1.314986E0,3.6443844E0,-9.652109E-1,-1.0092804E0,7.338213E-1,-4.0290695E-1,8.786272E-1,4.3461018E0,1.314986E0,2.7224653E0,4.004486E0,3.1484456E0,3.0975168E0,8.786272E-1,2.8703427E-1,2.6401448E-1,3.234371E0,3.22963E-1,5.4952866E-1,8.786272E-1,6.8621784E-1,2.7224653E0,-3.0272257E-1,4.2201567E-1,-1.0465522E0,-1.8543655E-1,2.7224653E0,1.0839783E0,1.519714E0,-3.209052E-1,-4.1803938E-1,1.8381239E1,-1.4409335E0,-1.3842528E-1,-3.389795E-1,-2.516336E-1,-3.429186E-1,-2.985193E-1,-2.0999263E-1,-2.757041E-1,3.9769456E-1,5.0643913E-2,-1.7540708E-1,-8.685613E-2,-2.3204951E-1,8.64466E-1,-8.685125E-2,8.702807E-2,-1.9098903E-1,9.294416E-2,-8.625659E-2,2.4426867E-1,-1.9275771E-1,-2.4929447E-2,5.0368473E-2,1.152606E0,-5.0199963E-2,1.1545625E-1,1.1773481E-1,-5.294009E-2,2.670652E-1,6.728094E-1,2.2966874E-1,4.586731E-1,1.2984936E0,2.3418824E-1,8.739713E-2,-7.2065875E-2,-3.2868624E-1,1.0353396E-2,3.7053338E-1,1.1918081E-1,8.4165E-3,2.571904E-1,4.3852136E-1,3.0976353E-2,3.7679252E-1,1.05154E0,-8.4984176E-2,2.5643274E-1,2.4596362E-1,5.29561E-1,6.633255E-1,-3.640884E-2,-1.4089788E-2,3.477254E-1,8.72653E-1,2.2253263E-1,1.1655155E0,3.2019287E-2,-2.6749706E-1,7.802553E-2,1.1625812E0,5.2277714E-1],"split_indices":[5,11,11,4,12,5,5,8,8,4,10,8,8,1,3,25,39,25,3,6,16,43,8,44,3,4,3,12,1,12,4,4,42,3,9,4,43,12,4,11,1,1,4,3,4,39,28,3,4,2,4,0,3,2,1,4,2,0,8,6,5,2,1,0,0,0,0,0,0,0,0,0,0,0,0,0,0,0,0,0,0,0,0,0,0,0,0,0,0,0,0,0,0,0,0,0,0,0,0,0,0,0,0,0,0,0,0,0,0,0,0,0,0,0,0,0,0,0,0,0,0,0,0],"split_type":[0,0,0,0,0,0,0,0,0,0,0,0,0,0,0,0,0,0,0,0,0,0,0,0,0,0,0,0,0,0,0,0,0,0,0,0,0,0,0,0,0,0,0,0,0,0,0,0,0,0,0,0,0,0,0,0,0,0,0,0,0,0,0,0,0,0,0,0,0,0,0,0,0,0,0,0,0,0,0,0,0,0,0,0,0,0,0,0,0,0,0,0,0,0,0,0,0,0,0,0,0,0,0,0,0,0,0,0,0,0,0,0,0,0,0,0,0,0,0,0,0,0,0],"sum_hessian":[4.4709E4,4.1037E4,3.672E3,3.413E4,6.907E3,2.213E3,1.459E3,2.3671E4,1.0459E4,4.991E3,1.916E3,1.988E3,2.25E2,1.186E3,2.73E2,1.3525E4,1.0146E4,5.844E3,4.615E3,2.917E3,2.074E3,1.066E3,8.5E2,1.323E3,6.65E2,1.26E2,9.9E1,1.101E3,8.5E1,2.47E2,2.6E1,4.017E3,9.508E3,1.0053E4,9.3E1,1.922E3,3.922E3,3.567E3,1.048E3,7.64E2,2.153E3,4.16E2,1.658E3,8.53E2,2.13E2,8.09E2,4.1E1,1.238E3,8.5E1,5.29E2,1.36E2,1E1,1.16E2,8.8E1,1.1E1,7.43E2,3.58E2,5E1,3.5E1,1.4E2,1.07E2,1.3E1,1.3E1,3.18E2,3.699E3,2.005E3,7.503E3,7.481E3,2.572E3,3.9E1,5.4E1,1.484E3,4.38E2,3.918E3,4E0,3.25E3,3.17E2,1.025E3,2.3E1,6.53E2,1.11E2,1.969E3,1.84E2,3.67E2,4.9E1,1.223E3,4.35E2,6.77E2,1.76E2,1.82E2,3.1E1,4.13E2,3.96E2,2.9E1,1.2E1,9.34E2,3.04E2,8E1,5E0,3.91E2,1.38E2,1.11E2,2.5E1,9.6E1,2E1,1.5E1,7.3E1,7E0,4E0,5.73E2,1.7E2,3.45E2,1.3E1,1.7E1,1.8E1,1.33E2,7E0,1.04E2,3E0,3E0,1E1,3E0,1E1],"tree_param":{"num_deleted":"0","num_feature":"55","num_nodes":"123","size_leaf_vector":"0"}},{"base_weights":[-3.4658396E-1,-4.4166884E-1,7.158824E-1,-5.3881395E-1,3.836897E-2,3.4554473E-1,1.2769864E0,-6.323373E-1,-4.0175247E-1,-1.6257627E-1,5.6162417E-1,2.1367367E-1,1.2593685E0,1.0732799E0,2.1548061E0,-6.678349E-1,-4.2449516E-1,-4.878558E-1,-2.2852242E-1,-2.5662119E-2,-4.9281847E-1,7.6173204E-1,9.6734636E-2,-1.844241E-1,4.332856E-1,8.49973E-1,2.01875E0,1.4065082E0,6.2664866E-1,2.5409393E0,1.6455555E0,-6.172926E-1,-7.497521E-1,-4.817809E-1,6.8905525E-2,-5.305597E-1,-2.6353967E-1,-2.932153E-1,6.777357E-2,7.73173E-2,-5.4849106E-1,-5.662967E-1,-1.5695982E-1,8.743378E-1,-9.8521456E-2,1.491595E-1,-8.6586493E-1,-7.3055106E-1,-4.7558248E-2,2.8373376E-1,1.1796807E0,1.0220628E0,-2.6791818E-2,2.5203679E0,1.0987759E0,1.6262156E0,3.3726224E-1,-1.165301E0,7.138506E-1,2.6294727E0,8.224051E-1,-2.7275875E-1,1.8592484E0,-5.8639324E-1,-7.924086E-1,-7.5156736E-1,5.2276444E-1,-4.0096873E-1,-5.902477E-1,3.247672E-1,-2.463553E-1,-4.5825085E-1,-6.4268637E-1,-1.8561341E-1,-4.548264E-1,-2.2054538E-1,-4.9603125E-1,-3.6781842E-1,1.5127423E-1,-1.635991E-2,7.732519E-1,-5.645307E-1,5.336383E-1,-6.0775673E-1,-2.531105E-1,-1.7424658E-1,2.995486E-1,8.1101024E-1,2.2665431E0,7.372442E-1,-3.2874513E-1,1.0087651E-1,9.5269865E-1,-9.240349E-1,-4.7917926E-1,-7.918747E-1,2.3640674E-1,-1.3206127E-1,3.552068E-1,2.0538728E-1,8.9482194E-1,1.5328153E0,4.6160385E-1,2.4343863E-1,1.1945271E0,1.2064087E0,-1.0811213E-1,2.922992E0,9.311574E-1,1.4551772E0,2.661435E-2,1.2884914E0,2.1668644E0,1.4868891E-1,1.2444085E0,-1.3553193E0,-1.7216717E-1,8.700046E-1,-1.0165168E-1,3.0191252E0,2.0370207E0,1.8728137E-1,1.1087534E0,-6.291925E-1,2.002223E0,1.2414588E0,2.3617573E0],"categories":[],"categories_nodes":[],"categories_segments":[],"categories_sizes":[],"default_left":[1,1,1,1,1,1,1,1,1,1,1,1,1,1,1,1,1,1,1,1,1,1,1,1,1,1,1,1,1,1,1,1,1,1,1,1,1,1,1,1,1,1,1,1,1,1,1,1,1,1,1,1,1,1,1,0,1,1,1,1,1,1,1,0,0,0,0,0,0,0,0,0,0,0,0,0,0,0,0,0,0,0,0,0,0,0,0,0,0,0,0,0,0,0,0,0,0,0,0,0,0,0,0,0,0,0,0,0,0,0,0,0,0,0,0,0,0,0,0,0,0,0,0,0,0,0,0],"id":1,"left_children":[1,3,5,7,9,11,13,15,17,19,21,23,25,27,29,31,33,35,37,39,41,43,45,47,49,51,53,55,57,59,61,63,65,67,69,71,73,75,77,79,81,83,85,87,89,91,93,95,97,99,101,103,105,107,109,111,113,115,117,119,121,123,125,-1,-1,-1,-1,-1,-1,-1,-1,-1,-1,-1,-1,-1,-1,-1,-1,-1,-1,-1,-1,-1,-1,-1,-1,-1,-1,-1,-1,-1,-1,-1,-1,-1,-1,-1,-1,-1,-1,-1,-1,-1,-1,-1,-1,-1,-1,-1,-1,-1,-1,-1,-1,-1,-1,-1,-1,-1,-1,-1,-1,-1,-1,-1,-1],"loss_changes":[4.51712E3,1.9137593E3,7.6280054E2,4.3725195E2,7.264374E2,2.6653317E2,2.58761E2,1.4938477E2,2.0641113E2,2.256998E2,1.7826111E2,1.6933862E2,8.50217E1,1.757799E2,4.9697754E1,7.126758E1,8.375354E1,8.844849E1,8.817462E1,1.9009981E2,3.6015472E1,1.298913E2,2.9297432E1,5.146534E1,1.3897299E2,2.763884E1,4.1993805E1,1.5896301E2,8.036894E1,2.126825E1,5.0108673E1,5.7541016E1,1.5652832E1,2.3026794E1,2.5004927E1,6.2686523E1,2.1991753E1,5.552887E1,3.0062723E1,1.9233263E2,1.0385605E1,1.5427826E1,2.1355648E0,1.0263733E2,3.0258799E1,2.1203598E1,2.3202705E-1,8.370232E0,1.8834154E1,4.965576E1,5.203662E1,2.0254791E1,3.2392392E0,3.694922E1,1.371759E1,1.00006226E2,1.982941E1,4.295788E0,6.19776E1,2.75542E1,1.4291506E0,1.1801228E1,3.0906464E1,0E0,0E0,0E0,0E0,0E0,0E0,0E0,0E0,0E0,0E0,0E0,0E0,0E0,0E0,0E0,0E0,0E0,0E0,0E0,0E0,0E0,0E0,0E0,0E0,0E0,0E0,0E0,0E0,0E0,0E0,0E0,0E0,0E0,0E0,0E0,0E0,0E0,0E0,0E0,0E0,0E0,0E0,0E0,0E0,0E0,0E0,0E0,0E0,0E0,0E0,0E0,0E0,0E0,0E0,0E0,0E0,0E0,0E0,0E0,0E0,0E0,0E0,0E0,0E0],"parents":[2147483647,0,0,1,1,2,2,3,3,4,4,5,5,6,6,7,7,8,8,9,9,10,10,11,11,12,12,13,13,14,14,15,15,16,16,17,17,18,18,19,19,20,20,21,21,22,22,23,23,24,24,25,25,26,26,27,27,28,28,29,29,30,30,31,31,32,32,33,33,34,34,35,35,36,36,37,37,38,38,39,39,40,40,41,41,42,42,43,43,44,44,45,45,46,46,47,47,48,48,49,49,50,50,51,51,52,52,53,53,54,54,55,55,56,56,57,57,58,58,59,59,60,60,61,61,62,62],"right_children":[2,4,6,8,10,12,14,16,18,20,22,24,26,28,30,32,34,36,38,40,42,44,46,48,50,52,54,56,58,60,62,64,66,68,70,72,74,76,78,80,82,84,86,88,90,92,94,96,98,100,102,104,106,108,110,112,114,116,118,120,122,124,126,-1,-1,-1,-1,-1,-1,-1,-1,-1,-1,-1,-1,-1,-1,-1,-1,-1,-1,-1,-1,-1,-1,-1,-1,-1,-1,-1,-1,-1,-1,-1,-1,-1,-1,-1,-1,-1,-1,-1,-1,-1,-1,-1,-1,-1,-1,-1,-1,-1,-1,-1,-1,-1,-1,-1,-1,-1,-1,-1,-1,-1,-1,-1,-1],"split_conditions":[8.950374E-1,-2.1468583E-1,-2.4272019E-1,-3.5059822E-1,1.314986E0,1.314986E0,2.352221E0,9.732269E-1,-3.908583E-1,-4.8366368E-1,-6.600292E-3,8.786272E-1,1.6236291E0,6.761083E-2,8.081606E-2,4.2629063E-1,1.314986E0,8.786272E-1,8.786272E-1,6.3879657E-1,5.28005E0,4.7272116E-1,1.3171041E0,-3.5059822E-1,8.682972E-1,-4.0163332E-1,-4.9743764E-2,-4.7382003E-1,-3.5059822E-1,1.9452101E0,-1.2979436E0,1.3959035E0,3.234371E0,-5.03351E-1,-6.5860605E-1,-3.8850844E-1,7.571491E-1,6.400721E-1,-1.3835021E0,4.004486E0,2.4422417E0,1.396472E0,1.4932399E0,2.4422417E0,-5.296006E-1,1.664457E-1,1.7252226E0,2.074988E0,9.732269E-1,2.352221E0,-4.8366368E-1,-2.0181507E-2,-1.6206106E0,-2.9663447E-1,8.5373515E-1,4.8126993E-1,8.398638E-2,1.1621907E-1,8.113159E-1,2.6964027E-1,-4.7586507E-1,6.717448E0,-2.3714438E-1,-1.7591798E-1,-2.3772259E-1,-2.2547022E-1,1.5682934E-1,-1.2029062E-1,-1.7707431E-1,9.743016E-2,-7.390659E-2,-1.3747527E-1,-1.9280592E-1,-5.5684026E-2,-1.3644794E-1,-6.6163614E-2,-1.4880939E-1,-1.1034553E-1,4.5382272E-2,-4.907973E-3,2.3197557E-1,-1.693592E-1,1.6009149E-1,-1.8232703E-1,-7.593315E-2,-5.2273978E-2,8.986458E-2,2.4330308E-1,6.79963E-1,2.2117327E-1,-9.8623544E-2,3.0262955E-2,2.858096E-1,-2.7721047E-1,-1.4375378E-1,-2.3756242E-1,7.0922025E-2,-3.9618384E-2,1.0656204E-1,6.1616186E-2,2.684466E-1,4.5984462E-1,1.3848116E-1,7.303159E-2,3.5835814E-1,3.6192262E-1,-3.243364E-2,8.7689763E-1,2.7934724E-1,4.3655318E-1,7.984305E-3,3.8654742E-1,6.5005934E-1,4.4606674E-2,3.7332255E-1,-4.065958E-1,-5.165015E-2,2.6100138E-1,-3.0495506E-2,9.057376E-1,6.111062E-1,5.6184415E-2,3.3262604E-1,-1.8875775E-1,6.0066694E-1,3.7243766E-1,7.085272E-1],"split_indices":[5,11,11,4,12,12,5,8,8,6,9,4,5,3,3,52,12,4,4,3,11,1,2,4,8,6,3,6,4,9,2,38,39,6,35,6,3,3,2,11,8,6,4,8,6,5,8,8,8,5,6,7,2,6,3,10,6,1,3,2,2,4,10,0,0,0,0,0,0,0,0,0,0,0,0,0,0,0,0,0,0,0,0,0,0,0,0,0,0,0,0,0,0,0,0,0,0,0,0,0,0,0,0,0,0,0,0,0,0,0,0,0,0,0,0,0,0,0,0,0,0,0,0,0,0,0,0],"split_type":[0,0,0,0,0,0,0,0,0,0,0,0,0,0,0,0,0,0,0,0,0,0,0,0,0,0,0,0,0,0,0,0,0,0,0,0,0,0,0,0,0,0,0,0,0,0,0,0,0,0,0,0,0,0,0,0,0,0,0,0,0,0,0,0,0,0,0,0,0,0,0,0,0,0,0,0,0,0,0,0,0,0,0,0,0,0,0,0,0,0,0,0,0,0,0,0,0,0,0,0,0,0,0,0,0,0,0,0,0,0,0,0,0,0,0,0,0,0,0,0,0,0,0,0,0,0,0],"sum_hessian":[4.4709E4,4.1037E4,3.672E3,3.413E4,6.907E3,2.213E3,1.459E3,2.0285E4,1.3845E4,4.991E3,1.916E3,1.935E3,2.78E2,1.186E3,2.73E2,1.7324E4,2.961E3,9.247E3,4.598E3,3.529E3,1.462E3,1.339E3,5.77E2,6.88E2,1.247E3,1.82E2,9.6E1,6.78E2,5.08E2,1.53E2,1.2E2,1.0719E4,6.605E3,2.653E3,3.08E2,7.767E3,1.48E3,3.774E3,8.24E2,2.949E3,5.8E2,1.199E3,2.63E2,1.184E3,1.55E2,5.48E2,2.9E1,1.37E2,5.51E2,1.04E3,2.07E2,1.52E2,3E1,6.1E1,3.5E1,5.62E2,1.16E2,2.3E1,4.85E2,1.45E2,8E0,1.2E1,1.08E2,9.115E3,1.604E3,6.596E3,9E0,1.523E3,1.13E3,1.7E2,1.38E2,4.725E3,3.042E3,1.053E3,4.27E2,2.78E3,9.94E2,1.32E2,6.92E2,2.6E3,3.49E2,5.72E2,8E0,1.058E3,1.41E2,2.54E2,9E0,1.134E3,5E1,3.3E1,1.22E2,5.18E2,3E1,2.4E1,5E0,1.29E2,8E0,4.56E2,9.5E1,9.23E2,1.17E2,1.38E2,6.9E1,2.8E1,1.24E2,1E0,2.9E1,4.8E1,1.3E1,2.6E1,9E0,3.48E2,2.14E2,9.7E1,1.9E1,1.9E1,4E0,4.07E2,7.8E1,8.5E1,6E1,3E0,5E0,1.1E1,1E0,5E1,5.8E1],"tree_param":{"num_deleted":"0","num_feature":"55","num_nodes":"127","size_leaf_vector":"0"}},{"base_weights":[-2.4244784E-1,-3.117871E-1,4.7854418E-1,-3.3667523E-1,6.963601E-1,3.5903805E-1,1.3954617E0,-4.1139096E-1,-1.7296948E-1,5.4265594E-1,1.6180028E0,1.8529645E-1,8.760703E-1,1.5882365E0,6.132648E-1,-4.256784E-1,1.0908988E-1,-2.6098004E-1,1.5933406E-1,7.281709E-1,1.7623128E-1,2.2093182E0,1.090983E0,2.9515758E-1,-2.2757393E-1,7.6053023E-1,1.8033005E0,1.4292289E0,2.5986352E0,4.2366552E-1,1.7182708E0,-5.860351E-1,-3.948613E-1,3.6447015E-1,-2.508175E-1,-3.1675416E-1,2.3674164E-2,6.4231634E-1,2.0308943E-2,8.312073E-1,1.8085627E-1,3.0196968E-1,-3.3202007E-1,2.3793943E0,7.0010155E-1,1.2158054E0,-5.679123E-1,1.0361281E-1,5.224939E-1,-2.4330024E-1,1.5258188E0,4.3339008E-1,9.6272683E-1,3.3626902E0,1.5185444E0,1.5183785E0,-1.2609436E-1,-4.8997173E-1,2.6747751E0,1.153138E-1,1.0850927E0,2.1951919E0,9.640026E-2,-5.97392E-1,1.3802975E-1,-3.289405E-1,-4.9693134E-1,-1.4293595E-1,5.672364E-1,-4.766458E-1,7.6381765E-2,-2.422597E-1,-4.3246967E-1,-6.279157E-2,4.591408E-1,3.1360433E-1,2.8353705E0,-5.0262237E-1,8.414735E-2,1.0144813E0,5.1541525E-1,-5.933762E-1,3.9640266E-1,4.8163828E-2,4.134052E-1,-2.0323852E-1,-6.4932036E-1,1.8929847E0,2.9896004E0,1.0474349E0,9.090942E-2,4.8363322E-1,1.6280907E0,6.285928E-2,1.0090692E0,6.094331E-1,-3.2517302E-1,-2.5086045E-1,1.9271648E0,-1.498602E-1,2.6928916E0,5.774255E-1,-1.2651011E-1,8.3809805E-1,2.9446592E0,3.7268825E0,7.8502464E-1,1.2373505E0,2.342438E0,3.0038038E-1,1.6239682E0,-2.5990787E-1,6.2960917E-1,2.740318E0,-1.7010033E-1,3.9969763E-1,-1.7318839E-1,1.4390938E0,-2.7575973E-1,2.4790783E0,-1.7989236E-1,-5.355915E-1,4.8559466E-1],"categories":[],"categories_nodes":[],"categories_segments":[],"categories_sizes":[],"default_left":[1,1,1,1,1,1,1,1,1,1,1,1,1,1,1,1,1,1,1,1,1,1,1,1,1,1,1,1,1,1,1,1,1,1,1,1,1,1,1,1,1,1,1,1,1,1,0,1,1,1,1,1,1,1,1,1,1,0,1,1,1,1,1,0,0,0,0,0,0,0,0,0,0,0,0,0,0,0,0,0,0,0,0,0,0,0,0,0,0,0,0,0,0,0,0,0,0,0,0,0,0,0,0,0,0,0,0,0,0,0,0,0,0,0,0,0,0,0,0,0,0,0,0],"id":2,"left_children":[1,3,5,7,9,11,13,15,17,19,21,23,25,27,29,31,33,35,37,39,41,43,45,47,49,51,53,55,57,59,61,63,65,67,69,71,73,75,77,79,81,83,85,87,89,91,-1,93,95,97,99,101,103,105,107,109,111,-1,113,115,117,119,121,-1,-1,-1,-1,-1,-1,-1,-1,-1,-1,-1,-1,-1,-1,-1,-1,-1,-1,-1,-1,-1,-1,-1,-1,-1,-1,-1,-1,-1,-1,-1,-1,-1,-1,-1,-1,-1,-1,-1,-1,-1,-1,-1,-1,-1,-1,-1,-1,-1,-1,-1,-1,-1,-1,-1,-1,-1,-1,-1,-1],"loss_changes":[2.235338E3,1.02364185E3,4.293706E2,4.86812E2,1.3837408E2,3.1172748E2,6.718207E1,2.0328857E2,3.6491748E2,5.724449E1,4.1218567E1,1.1799904E2,9.215497E1,5.4445312E1,1.8337284E1,1.3122363E2,6.728E1,1.5661163E2,1.7544121E2,3.1429932E1,1.8313675E1,1.5018524E1,1.6427582E1,8.938748E1,1.545443E1,5.104486E1,3.7521973E1,4.3868225E1,1.2598541E1,1.5987099E1,9.843941E0,3.5326904E1,1.4999072E2,4.411579E1,2.2499224E1,7.0994385E1,6.091364E1,4.201067E2,6.780999E1,2.6736938E1,1.5254688E1,6.456892E0,2.1971922E0,1.1555695E1,1.5975211E0,2.0644936E1,0E0,4.1117577E1,6.9398224E1,9.393623E0,1.0181755E1,2.4186039E1,1.1609485E2,1.0217026E1,1.633052E1,3.7837402E1,1.9838605E0,0E0,9.229828E0,4.5817175E0,1.2440426E1,7.1885033E0,1.2439508E0,0E0,0E0,0E0,0E0,0E0,0E0,0E0,0E0,0E0,0E0,0E0,0E0,0E0,0E0,0E0,0E0,0E0,0E0,0E0,0E0,0E0,0E0,0E0,0E0,0E0,0E0,0E0,0E0,0E0,0E0,0E0,0E0,0E0,0E0,0E0,0E0,0E0,0E0,0E0,0E0,0E0,0E0,0E0,0E0,0E0,0E0,0E0,0E0,0E0,0E0,0E0,0E0,0E0,0E0,0E0,0E0,0E0,0E0,0E0,0E0],"parents":[2147483647,0,0,1,1,2,2,3,3,4,4,5,5,6,6,7,7,8,8,9,9,10,10,11,11,12,12,13,13,14,14,15,15,16,16,17,17,18,18,19,19,20,20,21,21,22,22,23,23,24,24,25,25,26,26,27,27,28,28,29,29,30,30,31,31,32,32,33,33,34,34,35,35,36,36,37,37,38,38,39,39,40,40,41,41,42,42,43,43,44,44,45,45,47,47,48,48,49,49,50,50,51,51,52,52,53,53,54,54,55,55,56,56,58,58,59,59,60,60,61,61,62,62],"right_children":[2,4,6,8,10,12,14,16,18,20,22,24,26,28,30,32,34,36,38,40,42,44,46,48,50,52,54,56,58,60,62,64,66,68,70,72,74,76,78,80,82,84,86,88,90,92,-1,94,96,98,100,102,104,106,108,110,112,-1,114,116,118,120,122,-1,-1,-1,-1,-1,-1,-1,-1,-1,-1,-1,-1,-1,-1,-1,-1,-1,-1,-1,-1,-1,-1,-1,-1,-1,-1,-1,-1,-1,-1,-1,-1,-1,-1,-1,-1,-1,-1,-1,-1,-1,-1,-1,-1,-1,-1,-1,-1,-1,-1,-1,-1,-1,-1,-1,-1,-1,-1,-1,-1],"split_conditions":[1.4932399E0,3.234371E0,2.352221E0,2.6401448E-1,2.6401448E-1,3.762346E-2,1.8674058E-1,3.5258887E0,-2.4272019E-1,1.6363958E-1,-4.4253764E-1,8.4304965E-1,1.1343138E0,2.0924764E0,2.2323823E0,-1.0092804E0,1.6363958E-1,1.664457E-1,-1.044178E-1,2.0204142E-1,8.94025E-1,7.3534024E-1,1.4630748E0,-3.908583E-1,6.4101415E0,3.22963E-1,-9.1222465E-1,1.1593163E0,-2.6057081E0,1.314986E0,2.6915866E-1,2.4072652E0,-4.902261E-1,-7.7975E-1,1.6377811E0,-4.967885E-1,9.732269E-1,2.8859663E0,-1.1536343E0,4.5216385E-1,4.4857872E-1,1.3579688E0,1.3994565E0,1.3579688E0,8.6368465E-1,1.5359381E-2,-1.703737E-1,3.337078E0,1.2650809E0,7.4264708E0,8.950374E-1,1.5187218E0,3.1484456E0,1.1321132E0,1.3229923E0,-1.6073729E0,1.4709119E0,-1.4699152E-1,1.1974782E0,-1.5185434E-1,7.865016E-1,5.121548E-1,4.2543548E-1,-1.792176E-1,4.1408926E-2,-9.868216E-2,-1.4907941E-1,-4.2880785E-2,1.7017093E-1,-1.4299375E-1,2.291453E-2,-7.267791E-2,-1.2974091E-1,-1.8837472E-2,1.3774225E-1,9.4081305E-2,8.506112E-1,-1.5078671E-1,2.5244206E-2,3.0434442E-1,1.5462458E-1,-1.7801288E-1,1.189208E-1,1.4449148E-2,1.2402157E-1,-6.0971558E-2,-1.9479612E-1,5.678955E-1,8.9688015E-1,3.142305E-1,2.7272828E-2,1.4508997E-1,4.8842725E-1,1.8857785E-2,3.027208E-1,1.8282995E-1,-9.755191E-2,-7.5258136E-2,5.7814944E-1,-4.4958062E-2,8.078675E-1,1.7322765E-1,-3.7953034E-2,2.5142944E-1,8.833978E-1,1.1180648E0,2.355074E-1,3.7120515E-1,7.0273143E-1,9.011412E-2,4.8719049E-1,-7.797237E-2,1.8888275E-1,8.2209545E-1,-5.1030103E-2,1.19909294E-1,-5.195652E-2,4.3172815E-1,-8.2727924E-2,7.437235E-1,-5.396771E-2,-1.6067745E-1,1.456784E-1],"split_indices":[4,39,5,4,4,11,25,40,11,53,9,3,0,8,8,42,53,5,16,3,2,2,2,8,4,28,3,3,2,12,2,8,6,2,8,6,8,1,2,2,8,8,2,8,2,2,0,4,2,1,5,1,1,27,8,3,54,0,1,3,20,3,2,0,0,0,0,0,0,0,0,0,0,0,0,0,0,0,0,0,0,0,0,0,0,0,0,0,0,0,0,0,0,0,0,0,0,0,0,0,0,0,0,0,0,0,0,0,0,0,0,0,0,0,0,0,0,0,0,0,0,0,0],"split_type":[0,0,0,0,0,0,0,0,0,0,0,0,0,0,0,0,0,0,0,0,0,0,0,0,0,0,0,0,0,0,0,0,0,0,0,0,0,0,0,0,0,0,0,0,0,0,0,0,0,0,0,0,0,0,0,0,0,0,0,0,0,0,0,0,0,0,0,0,0,0,0,0,0,0,0,0,0,0,0,0,0,0,0,0,0,0,0,0,0,0,0,0,0,0,0,0,0,0,0,0,0,0,0,0,0,0,0,0,0,0,0,0,0,0,0,0,0,0,0,0,0,0,0],"sum_hessian":[4.4709E4,4.0787E4,3.922E3,3.9805E4,9.82E2,3.471E3,4.51E2,2.733E4,1.2475E4,8.43E2,1.39E2,2.599E3,8.72E2,3.61E2,9E1,2.66E4,7.3E2,9.863E3,2.612E3,5.59E2,2.84E2,6.4E1,7.5E1,2.053E3,5.46E2,7.77E2,9.5E1,3.14E2,4.7E1,7.8E1,1.2E1,4.285E3,2.2315E4,4.27E2,3.03E2,8.247E3,1.616E3,5.83E2,2.029E3,4.7E2,8.9E1,2.28E2,5.6E1,5.7E1,7E0,7E1,5E0,1.115E3,9.38E2,5.42E2,4E0,2.98E2,4.79E2,1.3E1,8.2E1,2.97E2,1.7E1,1E0,4.6E1,5.4E1,2.4E1,9E0,3E0,4.219E3,6.6E1,1.3561E4,8.754E3,1.22E2,3.05E2,1.79E2,1.24E2,5.019E3,3.228E3,1.349E3,2.67E2,5.08E2,7.5E1,2.2E2,1.809E3,2.96E2,1.74E2,1.9E1,7E1,7E1,1.58E2,4.1E1,1.5E1,3.4E1,2.3E1,4E0,3E0,2.6E1,4.4E1,1.068E3,4.7E1,8.51E2,8.7E1,5.41E2,1E0,2E0,2E0,2.37E2,6.1E1,4.52E2,2.7E1,1.1E1,2E0,6.3E1,1.9E1,2.4E1,2.73E2,1.5E1,2E0,4.5E1,1E0,2.7E1,2.7E1,1.9E1,5E0,8E0,1E0,1E0,2E0],"tree_param":{"num_deleted":"0","num_feature":"55","num_nodes":"123","size_leaf_vector":"0"}},{"base_weights":[-1.6947453E-1,-2.1928184E-1,3.8706276E-1,-2.5594944E-1,1.4042157E-1,2.4283554E-1,9.377223E-1,-2.829485E-1,-4.844585E-2,-8.338094E-2,3.215078E-1,1.6135421E-1,8.8425744E-1,-3.7061717E-2,1.0302119E0,-2.4390154E-1,-3.7085134E-1,-5.6214337E-3,-5.28893E-1,-1.3539727E-1,1.9001134E-1,2.7539614E-1,1.6947048E0,6.2276673E-2,6.363869E-1,6.122007E-1,2.3498952E0,4.8708656E-1,-3.409372E-1,1.1699449E0,1.7576228E-1,-1.9985162E-1,-3.5763234E-1,-3.804382E-1,-1.4484918E-1,-7.4158795E-2,3.7292612E0,-6.200914E-1,-3.2344836E-1,-3.8801578E-1,-8.48023E-2,4.245299E-1,-1.3384905E-1,1.8333342E0,2.4955247E-1,2.7537324E0,1.7553905E-1,1.6360457E-1,-2.1643974E-1,-8.167312E-2,7.725574E-1,2.8831786E-1,1.1513091E0,-3.5449034E-1,1.0717705E0,-4.7902703E-1,5.904547E-1,1.3739089E0,6.440607E-1,-3.3615267E-1,4.736209E-1,-3.6702412E-1,-1.4014445E-1,-3.7442505E-1,-1.5887499E-1,-3.4882635E-1,-4.3652636E-1,2.2623911E-1,-2.197226E-1,-1.2396077E-1,2.8890392E-1,4.5975585E0,2.807108E0,-1.2605568E0,-5.535288E-1,-3.8470778E-1,8.0249965E-1,-3.9617494E-1,7.728508E-1,-1.7632157E-1,9.6617855E-2,2.6569897E-1,1.5071783E0,-1.7131916E-1,7.247572E-1,3.6909968E-1,2.2871253E0,2.9412615E-1,-4.6385235E-1,2.924711E0,-3.2990757E-1,-6.0073507E-1,4.9986896E-1,-2.7717993E-1,2.9497615E-1,-9.433648E-2,-5.112624E-1,-2.7095175E-1,1.1189494E0,8.568115E-1,-4.4636097E-2,1.6745098E-2,1.0724894E0,4.326421E-1,1.7138271E0,-5.7580465E-1,4.2761612E-1,5.8573717E-1,2.8206582E0,-5.354475E-1,8.042643E-1,-7.9805814E-2,9.455364E-1,1.2135787E0,2.0709E0,5.34906E-1,2.0275924E0,-5.9059334E-1,5.2106196E-1,2.932572E-1,1.8746363E0],"categories":[],"categories_nodes":[],"categories_segments":[],"categories_sizes":[],"default_left":[1,1,1,1,1,1,1,1,1,1,1,1,1,1,1,1,1,1,1,1,1,1,1,1,1,1,0,1,1,1,1,1,1,1,1,1,1,1,1,1,1,1,1,1,1,1,1,1,1,1,1,1,1,1,1,1,1,1,1,1,1,0,0,0,0,0,0,0,0,0,0,0,0,0,0,0,0,0,0,0,0,0,0,0,0,0,0,0,0,0,0,0,0,0,0,0,0,0,0,0,0,0,0,0,0,0,0,0,0,0,0,0,0,0,0,0,0,0,0,0,0],"id":3,"left_children":[1,3,5,7,9,11,13,15,17,19,21,23,25,27,29,31,33,35,37,39,41,43,45,47,49,51,-1,53,55,57,59,61,63,65,67,69,71,73,75,77,79,81,83,85,87,89,91,93,95,97,99,101,103,105,107,109,111,113,115,117,119,-1,-1,-1,-1,-1,-1,-1,-1,-1,-1,-1,-1,-1,-1,-1,-1,-1,-1,-1,-1,-1,-1,-1,-1,-1,-1,-1,-1,-1,-1,-1,-1,-1,-1,-1,-1,-1,-1,-1,-1,-1,-1,-1,-1,-1,-1,-1,-1,-1,-1,-1,-1,-1,-1,-1,-1,-1,-1,-1,-1],"loss_changes":[1.239429E3,5.413048E2,2.914823E2,2.0863135E2,1.5390991E2,1.5204982E2,6.873816E1,1.130188E2,8.824264E1,2.4186972E1,1.3244281E2,1.2162357E2,1.2934705E2,1.0837544E1,8.289319E1,1.1425781E2,2.1901855E1,1.0085778E3,6.375839E0,1.821869E1,2.071557E1,8.13566E1,1.0891765E2,6.0472748E1,4.3672333E1,4.820907E1,0E0,1.2681345E1,5.8133216E0,6.3257446E1,1.5254559E1,1.6416248E2,2.1201538E1,1.7083618E1,1.1552556E1,6.999214E1,4.394403E1,9.6189575E0,7.8959703E0,2.56044E0,1.9791733E1,2.676891E1,3.8239532E0,2.1082886E1,6.3734573E1,2.2054321E1,7.601587E0,9.099504E1,2.0507086E1,1.6665339E1,2.5857727E1,3.7249977E1,4.1301895E1,2.1502285E0,1.1098103E1,3.1819878E0,1.5034425E0,4.5538635E1,2.4437637E1,8.377815E0,1.5369862E1,0E0,0E0,0E0,0E0,0E0,0E0,0E0,0E0,0E0,0E0,0E0,0E0,0E0,0E0,0E0,0E0,0E0,0E0,0E0,0E0,0E0,0E0,0E0,0E0,0E0,0E0,0E0,0E0,0E0,0E0,0E0,0E0,0E0,0E0,0E0,0E0,0E0,0E0,0E0,0E0,0E0,0E0,0E0,0E0,0E0,0E0,0E0,0E0,0E0,0E0,0E0,0E0,0E0,0E0,0E0,0E0,0E0,0E0,0E0,0E0],"parents":[2147483647,0,0,1,1,2,2,3,3,4,4,5,5,6,6,7,7,8,8,9,9,10,10,11,11,12,12,13,13,14,14,15,15,16,16,17,17,18,18,19,19,20,20,21,21,22,22,23,23,24,24,25,25,27,27,28,28,29,29,30,30,31,31,32,32,33,33,34,34,35,35,36,36,37,37,38,38,39,39,40,40,41,41,42,42,43,43,44,44,45,45,46,46,47,47,48,48,49,49,50,50,51,51,52,52,53,53,54,54,55,55,56,56,57,57,58,58,59,59,60,60],"right_children":[2,4,6,8,10,12,14,16,18,20,22,24,26,28,30,32,34,36,38,40,42,44,46,48,50,52,-1,54,56,58,60,62,64,66,68,70,72,74,76,78,80,82,84,86,88,90,92,94,96,98,100,102,104,106,108,110,112,114,116,118,120,-1,-1,-1,-1,-1,-1,-1,-1,-1,-1,-1,-1,-1,-1,-1,-1,-1,-1,-1,-1,-1,-1,-1,-1,-1,-1,-1,-1,-1,-1,-1,-1,-1,-1,-1,-1,-1,-1,-1,-1,-1,-1,-1,-1,-1,-1,-1,-1,-1,-1,-1,-1,-1,-1,-1,-1,-1,-1,-1,-1],"split_conditions":[8.950374E-1,1.314986E0,1.314986E0,-1.586171E-1,-2.4272019E-1,1.8411651E0,-9.661263E-1,6.116529E-1,3.293397E0,1.6377811E0,2.4422417E0,2.7224653E0,4.004486E0,-4.227223E-1,6.8125504E-1,9.439961E-1,1.4932399E0,3.1484456E0,3.22963E-1,-1.0614816E0,8.398638E-2,-9.264419E-1,-5.074467E0,5.877562E-1,-1.1604489E0,1.2180626E0,7.049686E-1,-2.7075458E-1,3.6443844E0,1.643892E-1,-1.1104596E-1,-1.0708727E0,1.8476405E0,1.1896534E0,-2.8833036E0,8.786272E-1,2.6401448E-1,-1.044178E-1,8.786272E-1,1.467793E0,2.6401448E-1,1.8674058E-1,5.4297147E0,-6.3719857E-1,7.0806825E-1,7.861662E-1,-8.129798E-1,-9.087285E-1,1.2186093E0,4.5663033E0,1.2688737E0,1.1343138E0,-5.296006E-1,1.30559E-1,-1.0566657E0,1.5687188E0,3.0808125E0,1.8476405E0,3.0808125E0,5.052171E-1,3.6443844E0,-1.1010724E-1,-4.2043336E-2,-1.1232752E-1,-4.76625E-2,-1.0464791E-1,-1.3095792E-1,6.7871734E-2,-6.5916784E-2,-3.7188232E-2,8.667118E-2,1.3792676E0,8.421324E-1,-3.7816706E-1,-1.6605864E-1,-1.1541234E-1,2.4074991E-1,-1.1885249E-1,2.3185526E-1,-5.2896474E-2,2.8985357E-2,7.9709694E-2,4.521535E-1,-5.1395748E-2,2.1742716E-1,1.1072991E-1,6.861376E-1,8.823785E-2,-1.3915572E-1,8.7741333E-1,-9.8972276E-2,-1.8022053E-1,1.499607E-1,-8.315398E-2,8.849285E-2,-2.8300945E-2,-1.5337873E-1,-8.128553E-2,3.3568484E-1,2.5704348E-1,-1.339083E-2,5.0235298E-3,3.2174683E-1,1.2979263E-1,5.141482E-1,-1.727414E-1,1.2828484E-1,1.7572115E-1,8.461975E-1,-1.6063425E-1,2.412793E-1,-2.3941746E-2,2.8366092E-1,3.6407363E-1,6.2127E-1,1.6047181E-1,6.0827774E-1,-1.7717801E-1,1.5631859E-1,8.797716E-2,5.623909E-1],"split_indices":[5,12,12,11,11,31,2,3,1,8,8,4,11,9,2,2,4,1,28,2,6,5,10,2,2,8,0,11,4,3,8,2,8,3,10,4,4,16,4,1,4,25,33,2,3,6,2,2,2,4,3,0,6,3,2,9,5,8,5,10,4,0,0,0,0,0,0,0,0,0,0,0,0,0,0,0,0,0,0,0,0,0,0,0,0,0,0,0,0,0,0,0,0,0,0,0,0,0,0,0,0,0,0,0,0,0,0,0,0,0,0,0,0,0,0,0,0,0,0,0,0],"split_type":[0,0,0,0,0,0,0,0,0,0,0,0,0,0,0,0,0,0,0,0,0,0,0,0,0,0,0,0,0,0,0,0,0,0,0,0,0,0,0,0,0,0,0,0,0,0,0,0,0,0,0,0,0,0,0,0,0,0,0,0,0,0,0,0,0,0,0,0,0,0,0,0,0,0,0,0,0,0,0,0,0,0,0,0,0,0,0,0,0,0,0,0,0,0,0,0,0,0,0,0,0,0,0,0,0,0,0,0,0,0,0,0,0,0,0,0,0,0,0,0,0],"sum_hessian":[4.4709E4,4.1037E4,3.672E3,3.7241E4,3.796E3,2.911E3,7.61E2,3.2953E4,4.288E3,1.698E3,2.098E3,2.584E3,3.27E2,6.6E1,6.95E2,2.282E4,1.0133E4,3.938E3,3.5E2,1.427E3,2.71E2,2.031E3,6.7E1,2.139E3,4.45E2,2.77E2,5E1,2.4E1,4.2E1,5.97E2,9.8E1,1.6451E4,6.369E3,9.72E3,4.13E2,3.868E3,7E1,2.41E2,1.09E2,2.37E2,1.19E3,1.57E2,1.14E2,3.2E1,1.999E3,3.9E1,2.8E1,1.569E3,5.7E2,7.1E1,3.74E2,1.74E2,1.03E2,1E1,1.4E1,3.7E1,5E0,4.29E2,1.68E2,3.6E1,6.2E1,4.328E3,1.2123E4,5.872E3,4.97E2,6.221E3,3.499E3,6.9E1,3.44E2,3.402E3,4.66E2,3.4E1,3.6E1,2.1E1,2.2E2,1.04E2,5E0,2.36E2,1E0,7.91E2,3.99E2,1.38E2,1.9E1,1.1E2,4E0,8E0,2.4E1,1.882E3,1.17E2,3.7E1,2E0,8E0,2E1,3.6E2,1.209E3,4.04E2,1.66E2,6.2E1,9E0,3.39E2,3.5E1,1.3E2,4.4E1,4.6E1,5.7E1,8E0,2E0,1.2E1,2E0,3.6E1,1E0,2E0,3E0,3.51E2,7.8E1,1.57E2,1.1E1,2.8E1,8E0,5.6E1,6E0],"tree_param":{"num_deleted":"0","num_feature":"55","num_nodes":"121","size_leaf_vector":"0"}},{"base_weights":[-1.18424475E-1,-1.6421586E-1,2.0324591E-1,-1.7849158E-1,3.983047E-1,1.259008E-1,6.3819695E-1,-2.1406537E-1,-4.7283906E-2,2.732492E-1,8.2033306E-1,4.824868E-2,4.6386132E-1,7.942762E-1,1.3399157E-1,-2.2222385E-1,1.3998194E-1,-3.458943E-1,-1.4568642E-2,6.07344E-1,1.1645488E-1,1.2451446E0,5.704744E-1,1.5454537E-1,-1.00941844E-1,5.5643725E-1,-1.3594542E-1,-3.957219E-2,8.803079E-1,1.2318717E-2,7.493566E-1,-2.705922E-1,-1.6660662E-1,2.5261428E0,-1.6149348E-1,-4.134269E-1,-1.8641596E-1,5.8192816E-2,-2.0184968E-1,3.7834764E-1,9.56558E-1,2.3617543E-1,-2.2557929E-1,-5.201884E-1,1.3197111E0,2.0853204E-1,8.95361E-1,1.2619273E-1,1.4514121E0,-3.2688782E-1,-6.435714E-2,7.241792E-1,1.8578534E-1,-2.571575E-1,1.3741086E0,-1.5851839E-1,1.6950408E0,4.1995877E-1,1.0334983E0,-1.3627205E0,4.5578342E-2,2.2132763E-1,1.6549634E0,-2.3364621E-1,-3.132815E-1,-1.4173652E-1,-3.0693573E-1,3.2135031E0,1.95321E0,-4.9395815E-2,-4.4606286E-1,-3.6437586E-1,-6.038531E-1,-4.065422E-1,-1.2666278E-1,1.3893536E-1,-1.7551588E-1,-1.2071783E-1,-3.63111E-1,3.2271698E-1,2.9225042E0,2.6113536E0,7.9339796E-1,-3.0446142E-1,3.1737444E-1,-3.335556E-1,2.3161384E-1,1.0854383E0,2.0403187E0,3.154501E-1,-3.167065E-1,1.0605459E0,-1.4711142E-1,1.0824418E-1,1.6841055E0,2.7342033E0,2.608118E-1,-6.378738E-1,-2.575056E-1,8.831325E-2,-1.4279799E-1,6.192744E-1,1.6315998E0,1.0720114E-1,6.430014E-1,-4.3135528E-2,-4.450559E-1,1.6723483E0,-5.0590473E-1,2.1280205E-2,-5.934021E-1,2.9450148E-1,1.2496445E0,1.1635244E0,3.817013E-1,1.9867139E-1,-2.0544009E-1,1.1328176E0,1.7786168E-2,-2.6934385E-2,1.8103118E0],"categories":[],"categories_nodes":[],"categories_segments":[],"categories_sizes":[],"default_left":[1,1,1,1,1,1,1,1,1,1,1,1,1,1,1,1,1,1,1,1,1,1,1,1,1,1,1,1,1,1,1,1,1,1,1,1,1,1,1,1,1,1,1,0,1,1,1,1,1,1,1,1,1,1,1,1,0,1,1,0,1,1,1,0,0,0,0,0,0,0,0,0,0,0,0,0,0,0,0,0,0,0,0,0,0,0,0,0,0,0,0,0,0,0,0,0,0,0,0,0,0,0,0,0,0,0,0,0,0,0,0,0,0,0,0,0,0,0,0,0,0],"id":4,"left_children":[1,3,5,7,9,11,13,15,17,19,21,23,25,27,29,31,33,35,37,39,41,43,45,47,49,51,53,55,57,59,61,63,65,67,69,71,73,75,77,79,81,83,85,-1,87,89,91,93,95,97,99,101,103,105,107,109,-1,111,113,-1,115,117,119,-1,-1,-1,-1,-1,-1,-1,-1,-1,-1,-1,-1,-1,-1,-1,-1,-1,-1,-1,-1,-1,-1,-1,-1,-1,-1,-1,-1,-1,-1,-1,-1,-1,-1,-1,-1,-1,-1,-1,-1,-1,-1,-1,-1,-1,-1,-1,-1,-1,-1,-1,-1,-1,-1,-1,-1,-1,-1],"loss_changes":[6.585997E2,3.143723E2,1.8736914E2,1.7815503E2,5.0916718E1,1.24161156E2,6.6076935E1,8.676953E1,7.954489E1,3.916501E1,2.2747253E1,6.105481E1,4.9162094E1,4.609027E1,1.4965412E1,7.891797E1,4.8742065E2,8.582001E0,1.0003275E2,1.875061E1,2.0977972E1,1.1348915E1,1.6393509E1,8.2474884E1,1.3221363E1,4.749066E1,2.2134739E1,1.2854559E1,4.0609222E1,7.745303E0,1.5413872E1,2.4685547E1,4.7615906E1,2.3652985E1,1.91815E1,5.048073E0,3.1184378E0,9.979132E1,2.6829536E1,1.9720695E1,2.330783E1,1.6734413E1,6.6429386E0,0E0,1.0953232E1,3.9186146E0,1.2898872E1,6.1362705E1,7.259686E1,4.6473904E0,1.6538933E1,4.915619E1,8.55426E0,4.4445996E0,5.8922997E0,4.5477333E0,0E0,1.4933224E1,3.650717E1,0E0,6.3816285E0,4.061424E0,3.1841164E0,0E0,0E0,0E0,0E0,0E0,0E0,0E0,0E0,0E0,0E0,0E0,0E0,0E0,0E0,0E0,0E0,0E0,0E0,0E0,0E0,0E0,0E0,0E0,0E0,0E0,0E0,0E0,0E0,0E0,0E0,0E0,0E0,0E0,0E0,0E0,0E0,0E0,0E0,0E0,0E0,0E0,0E0,0E0,0E0,0E0,0E0,0E0,0E0,0E0,0E0,0E0,0E0,0E0,0E0,0E0,0E0,0E0,0E0],"parents":[2147483647,0,0,1,1,2,2,3,3,4,4,5,5,6,6,7,7,8,8,9,9,10,10,11,11,12,12,13,13,14,14,15,15,16,16,17,17,18,18,19,19,20,20,21,21,22,22,23,23,24,24,25,25,26,26,27,27,28,28,29,29,30,30,31,31,32,32,33,33,34,34,35,35,36,36,37,37,38,38,39,39,40,40,41,41,42,42,44,44,45,45,46,46,47,47,48,48,49,49,50,50,51,51,52,52,53,53,54,54,55,55,57,57,58,58,60,60,61,61,62,62],"right_children":[2,4,6,8,10,12,14,16,18,20,22,24,26,28,30,32,34,36,38,40,42,44,46,48,50,52,54,56,58,60,62,64,66,68,70,72,74,76,78,80,82,84,86,-1,88,90,92,94,96,98,100,102,104,106,108,110,-1,112,114,-1,116,118,120,-1,-1,-1,-1,-1,-1,-1,-1,-1,-1,-1,-1,-1,-1,-1,-1,-1,-1,-1,-1,-1,-1,-1,-1,-1,-1,-1,-1,-1,-1,-1,-1,-1,-1,-1,-1,-1,-1,-1,-1,-1,-1,-1,-1,-1,-1,-1,-1,-1,-1,-1,-1,-1,-1,-1,-1,-1,-1],"split_conditions":[8.786272E-1,3.234371E0,1.6236291E0,6.9341457E-1,-3.5059822E-1,1.2172656E-1,1.8674058E-1,4.004486E0,-1.5888255E0,-2.6558058E0,-4.4253764E-1,-5.099134E-1,-3.5897753E-1,-3.9526019E-1,3.9516907E0,4.445344E-3,4.593208E0,1.9525701E0,8.3945173E-1,3.4649098E-1,7.3534024E-1,-1.2832309E0,1.2530391E0,2.337312E0,-1.2428012E0,1.8674058E-1,2.1078527E0,1.824295E0,-4.988924E-1,-1.0092804E0,8.1355286E-1,4.2629063E-1,9.799962E-1,2.6401448E-1,3.1523633E0,-2.1468583E-1,-2.4007905E0,6.2214196E-1,1.4179977E0,1.2104795E0,-1.9925162E-2,-9.9718904E-1,1.8674058E-1,-1.5605652E-1,1.8301523E0,-7.96612E-2,2.593993E-1,3.234371E0,-4.6235296E-1,-2.1171327E0,-1.5315992E-1,4.004486E0,4.3337566E-1,-7.234302E-2,1.3368057E0,7.865016E-1,5.0851226E-1,3.8094044E0,6.8335235E-1,-4.0881616E-1,4.7137937E-1,-1.1987439E0,-1.5433341E0,-7.009387E-2,-9.3984455E-2,-4.252096E-2,-9.208072E-2,9.6405095E-1,5.85963E-1,-1.4818745E-2,-1.3381886E-1,-1.09312765E-1,-1.8115593E-1,-1.2196267E-1,-3.7998833E-2,4.1680608E-2,-5.2654766E-2,-3.621535E-2,-1.089333E-1,9.68151E-2,8.767513E-1,7.8340614E-1,2.3801939E-1,-9.1338426E-2,9.521233E-2,-1.00066684E-1,6.948416E-2,3.256315E-1,6.1209565E-1,9.463503E-2,-9.501196E-2,3.1816378E-1,-4.4133425E-2,3.2473255E-2,5.052317E-1,8.2026106E-1,7.8243546E-2,-1.9136216E-1,-7.725168E-2,2.6493976E-2,-4.28394E-2,1.8578231E-1,4.8947996E-1,3.216034E-2,1.9290042E-1,-1.2940659E-2,-1.3351677E-1,5.017045E-1,-1.5177143E-1,6.3840616E-3,-1.7802063E-1,8.8350445E-2,3.7489337E-1,3.4905732E-1,1.14510395E-1,5.960142E-2,-6.163203E-2,3.398453E-1,5.3358506E-3,-8.080316E-3,5.4309356E-1],"split_indices":[4,39,5,8,4,11,25,11,2,10,9,6,6,14,4,15,11,8,2,19,2,2,8,8,2,25,4,1,2,42,1,52,3,4,1,11,2,3,2,2,7,2,25,0,8,1,3,39,9,2,3,11,10,3,26,20,0,5,2,0,2,3,21,0,0,0,0,0,0,0,0,0,0,0,0,0,0,0,0,0,0,0,0,0,0,0,0,0,0,0,0,0,0,0,0,0,0,0,0,0,0,0,0,0,0,0,0,0,0,0,0,0,0,0,0,0,0,0,0,0,0],"split_type":[0,0,0,0,0,0,0,0,0,0,0,0,0,0,0,0,0,0,0,0,0,0,0,0,0,0,0,0,0,0,0,0,0,0,0,0,0,0,0,0,0,0,0,0,0,0,0,0,0,0,0,0,0,0,0,0,0,0,0,0,0,0,0,0,0,0,0,0,0,0,0,0,0,0,0,0,0,0,0,0,0,0,0,0,0,0,0,0,0,0,0,0,0,0,0,0,0,0,0,0,0,0,0,0,0,0,0,0,0,0,0,0,0,0,0,0,0,0,0,0,0],"sum_hessian":[4.4709E4,3.9138E4,5.571E3,3.817E4,9.68E2,4.731E3,8.4E2,3.0028E4,8.142E3,7.48E2,2.2E2,3.848E3,8.83E2,6.41E2,1.99E2,2.9352E4,6.76E2,8.03E2,7.339E3,2.38E2,5.1E2,8E1,1.4E2,2.247E3,1.601E3,7.65E2,1.18E2,6E1,5.81E2,1.67E2,3.2E1,1.5697E4,1.3655E4,7.5E1,6.01E2,5.63E2,2.4E2,5.286E3,2.053E3,1.45E2,9.3E1,3.78E2,1.32E2,3E0,7.7E1,6.7E1,7.3E1,2.2E3,4.7E1,2.22E2,1.379E3,5.26E2,2.39E2,1.1E2,8E0,5.7E1,3E0,1.46E2,4.35E2,3E0,1.64E2,2.1E1,1.1E1,8.418E3,7.279E3,1.1601E4,2.054E3,3.2E1,4.3E1,4.32E2,1.69E2,4.5E2,1.13E2,5E1,1.9E2,3.929E3,1.357E3,1.367E3,6.86E2,1.43E2,2E0,7E0,8.6E1,4.9E1,3.29E2,1.07E2,2.5E1,6E1,1.7E1,5.6E1,1.1E1,6.3E1,1E1,2.176E3,2.4E1,2.2E1,2.5E1,3.9E1,1.83E2,4.68E2,9.11E2,4.73E2,5.3E1,2.05E2,3.4E1,5.2E1,5.8E1,7E0,1E0,4.1E1,1.6E1,1.28E2,1.8E1,3.62E2,7.3E1,1.02E2,6.2E1,3E0,1.8E1,1E0,1E1],"tree_param":{"num_deleted":"0","num_feature":"55","num_nodes":"121","size_leaf_vector":"0"}},{"base_weights":[-8.2729205E-2,-1.1831135E-1,1.4034511E-1,-1.2856695E-1,2.8827628E-1,2.183437E-1,-1.635081E-1,-1.7688069E-1,-5.9730336E-2,3.9098522E-1,-8.450494E-3,3.080446E-1,-7.874583E-2,-1.7658941E-1,1.1018574E0,-3.4328023E-1,-1.6059728E-1,-6.7452535E-2,7.479345E-1,-2.1619508E-1,4.478023E-1,5.1970184E-2,-5.6698966E-1,-1.6644067E-1,3.8221586E-1,-2.2725387E-1,-2.1489697E-2,-2.1267438E-1,3.0005457E-2,-4.3345088E-1,1.8323779E0,-3.2617533E-1,-4.9378014E-1,-1.6311182E-1,7.278674E-1,-2.2218065E-2,-1.7296538E-1,5.5310744E-1,1.7233772E0,-1.8351404E-2,-6.5256786E-1,1.4133965E0,4.0658736E-1,-2.6396778E-1,1.1865285E-1,-1.827605E-1,1.515151E0,5.329481E-1,3.6776103E-2,-2.5111207E-1,1.3069497E0,-6.2148202E-2,2.7910468E-1,-1.1648652E-1,-2.9391274E-1,-6.348185E-2,3.6217964E-1,-1.1248399E-1,-6.0993415E-1,2.0962005E0,-1.3910095E-1,-2.8986835E-1,-3.72249E-1,-6.187118E-1,-4.081323E-1,-1.7530128E-1,-1.679585E-2,2.6689115E0,3.564947E-1,-3.7404332E-2,3.9948356E-1,-1.7946465E-1,1.5939243E0,6.600759E-1,-2.682018E-1,2.0609155E0,2.854861E-2,-1.4140113E-1,5.3766626E-1,-7.4322253E-1,4.8960817E-1,2.1162362E0,8.4185696E-1,5.615651E-1,2.1639454E-1,-1.1693617E-1,-4.2900822E-1,3.8261184E-1,6.06518E-3,-2.781016E-1,-1.202822E-2,1.9345825E0,-8.128756E-2,4.422411E-1,1.1141045E0,1.855827E-2,2.2684178E0,-2.916793E-1,4.9074735E-2,1.8758221E0,-4.8426986E-1,9.0754945E-3,-1.9082773E-1,1.382393E0,6.305987E-2,-3.7782185E-2,-3.465824E-1,-3.0197808E-1,1.3418508E0,-1.5019825E-1,2.0565711E-1,9.8295027E-1,3.8930033E-3],"categories":[],"categories_nodes":[],"categories_segments":[],"categories_sizes":[],"default_left":[1,1,1,1,1,1,1,1,1,1,1,1,0,1,0,1,1,1,1,1,1,1,0,1,1,1,1,1,1,1,1,1,1,1,1,1,1,1,1,1,1,1,1,1,1,1,1,1,1,1,1,1,1,1,1,1,1,0,0,0,0,0,0,0,0,0,0,0,0,0,0,0,0,0,0,0,0,0,0,0,0,0,0,0,0,0,0,0,0,0,0,0,0,0,0,0,0,0,0,0,0,0,0,0,0,0,0,0,0,0,0,0,0],"id":5,"left_children":[1,3,5,7,9,11,13,15,17,19,21,23,25,27,29,31,33,35,37,39,41,43,-1,45,47,49,51,53,55,57,59,61,63,65,67,69,71,73,75,77,79,81,83,85,87,89,91,93,95,97,99,101,103,105,107,109,111,-1,-1,-1,-1,-1,-1,-1,-1,-1,-1,-1,-1,-1,-1,-1,-1,-1,-1,-1,-1,-1,-1,-1,-1,-1,-1,-1,-1,-1,-1,-1,-1,-1,-1,-1,-1,-1,-1,-1,-1,-1,-1,-1,-1,-1,-1,-1,-1,-1,-1,-1,-1,-1,-1,-1,-1],"loss_changes":[3.5490054E2,1.608244E2,1.4581514E2,1.2507776E2,2.8925484E1,1.3047209E2,2.1001263E1,5.9825928E1,9.6804214E1,2.441806E1,8.297558E0,1.3238992E2,9.654519E0,9.287815E0,1.5374709E1,4.907715E0,4.5095154E1,7.334005E1,2.6983047E1,5.2543736E0,2.509433E1,4.7083244E0,0E0,1.424555E1,1.6930844E2,1.1894854E1,1.0051376E1,8.248756E0,5.799049E0,2.1461856E-1,4.9726677E0,2.8546143E0,1.8768082E0,3.5802917E1,4.0137043E1,6.8903564E1,5.3236465E1,1.1070953E1,1.3670837E1,3.017993E0,2.3312159E0,8.662647E0,1.8153389E1,8.9621377E-1,5.465889E0,8.216946E0,3.5052404E0,1.1885394E2,4.0166367E1,3.8137722E0,6.0032806E0,6.6372147E0,2.327208E1,8.806253E0,7.977993E0,3.4383485E0,9.115141E0,0E0,0E0,0E0,0E0,0E0,0E0,0E0,0E0,0E0,0E0,0E0,0E0,0E0,0E0,0E0,0E0,0E0,0E0,0E0,0E0,0E0,0E0,0E0,0E0,0E0,0E0,0E0,0E0,0E0,0E0,0E0,0E0,0E0,0E0,0E0,0E0,0E0,0E0,0E0,0E0,0E0,0E0,0E0,0E0,0E0,0E0,0E0,0E0,0E0,0E0,0E0,0E0,0E0,0E0,0E0,0E0],"parents":[2147483647,0,0,1,1,2,2,3,3,4,4,5,5,6,6,7,7,8,8,9,9,10,10,11,11,12,12,13,13,14,14,15,15,16,16,17,17,18,18,19,19,20,20,21,21,23,23,24,24,25,25,26,26,27,27,28,28,29,29,30,30,31,31,32,32,33,33,34,34,35,35,36,36,37,37,38,38,39,39,40,40,41,41,42,42,43,43,44,44,45,45,46,46,47,47,48,48,49,49,50,50,51,51,52,52,53,53,54,54,55,55,56,56],"right_children":[2,4,6,8,10,12,14,16,18,20,22,24,26,28,30,32,34,36,38,40,42,44,-1,46,48,50,52,54,56,58,60,62,64,66,68,70,72,74,76,78,80,82,84,86,88,90,92,94,96,98,100,102,104,106,108,110,112,-1,-1,-1,-1,-1,-1,-1,-1,-1,-1,-1,-1,-1,-1,-1,-1,-1,-1,-1,-1,-1,-1,-1,-1,-1,-1,-1,-1,-1,-1,-1,-1,-1,-1,-1,-1,-1,-1,-1,-1,-1,-1,-1,-1,-1,-1,-1,-1,-1,-1,-1,-1,-1,-1,-1,-1],"split_conditions":[1.664457E-1,3.234371E0,6.100236E-1,-3.5059822E-1,-6.600292E-3,-4.8366368E-1,5.795529E0,-9.652109E-1,3.5258887E0,-1.0679832E0,1.3953629E0,-1.0845981E0,3.1363994E-1,2.1078527E0,-2.6109153E-1,-2.1468583E-1,4.3461018E0,4.2629063E-1,1.8674058E-1,-1.3842528E-1,-9.264419E-1,-9.652109E-1,-1.700969E-1,3.8094044E0,5.6220776E-1,3.6443844E0,2.3722887E0,9.8697984E-1,1.1343138E0,-1.462605E-1,1.6689075E0,-6.706706E-1,-3.9526019E-1,1.8126639E0,-2.0608747E-2,2.337312E0,3.1484456E0,-5.296006E-1,3.0031756E-2,2.6401448E-1,3.6443844E0,3.3634084E-1,-2.1420248E-1,2.1135175E-1,-5.8463377E-1,-1.4026899E0,-1.5801331E-1,1.497875E0,2.4422417E0,1.314986E0,9.7637737E-1,5.052171E-1,-2.9335326E-1,-3.7210238E-1,3.5111127E0,1.2355509E0,-5.2303827E-1,-3.37452E-2,-1.8298025E-1,6.288602E-1,-4.173029E-2,-8.696051E-2,-1.116747E-1,-1.8561356E-1,-1.224397E-1,-5.259039E-2,-5.038755E-3,8.006735E-1,1.0694841E-1,-1.12213E-2,1.1984507E-1,-5.3839397E-2,4.781773E-1,1.9802278E-1,-8.046054E-2,6.182747E-1,8.564583E-3,-4.242034E-2,1.6129988E-1,-2.2296678E-1,1.4688246E-1,6.348709E-1,2.525571E-1,1.6846953E-1,6.491837E-2,-3.5080854E-2,-1.2870248E-1,1.14783555E-1,1.8195541E-3,-8.3430484E-2,-3.6084661E-3,5.803748E-1,-2.438627E-2,1.3267234E-1,3.3423138E-1,5.567481E-3,6.8052536E-1,-8.750379E-2,1.4722421E-2,5.6274664E-1,-1.4528096E-1,2.7226484E-3,-5.724832E-2,4.147179E-1,1.8917961E-2,-1.1334656E-2,-1.0397473E-1,-9.059343E-2,4.0255526E-1,-4.5059476E-2,6.1697137E-2,2.948851E-1,1.1679011E-3],"split_indices":[5,39,3,4,9,6,4,4,40,2,2,2,10,4,10,11,43,52,25,1,5,4,0,5,2,4,8,3,0,1,2,8,14,8,7,8,1,6,1,4,4,2,3,29,3,2,1,8,8,12,2,10,6,6,3,8,6,0,0,0,0,0,0,0,0,0,0,0,0,0,0,0,0,0,0,0,0,0,0,0,0,0,0,0,0,0,0,0,0,0,0,0,0,0,0,0,0,0,0,0,0,0,0,0,0,0,0,0,0,0,0,0,0],"split_type":[0,0,0,0,0,0,0,0,0,0,0,0,0,0,0,0,0,0,0,0,0,0,0,0,0,0,0,0,0,0,0,0,0,0,0,0,0,0,0,0,0,0,0,0,0,0,0,0,0,0,0,0,0,0,0,0,0,0,0,0,0,0,0,0,0,0,0,0,0,0,0,0,0,0,0,0,0,0,0,0,0,0,0,0,0,0,0,0,0,0,0,0,0,0,0,0,0,0,0,0,0,0,0,0,0,0,0,0,0,0,0,0,0],"sum_hessian":[4.4709E4,3.8559E4,6.15E3,3.7611E4,9.48E2,4.894E3,1.256E3,2.2099E4,1.5512E4,7.04E2,2.44E2,3.759E3,1.135E3,1.244E3,1.2E1,1.968E3,2.0131E4,1.5366E4,1.46E2,6E1,6.44E2,2.21E2,2.3E1,5.08E2,3.251E3,3.15E2,8.2E2,1.059E3,1.85E2,4E0,8E0,1.77E3,1.98E2,2.0075E4,5.6E1,1.0756E4,4.61E3,1.23E2,2.3E1,4.2E1,1.8E1,2.5E1,6.19E2,3.8E1,1.83E2,5.04E2,4E0,2.263E3,9.88E2,3.11E2,4E0,7.23E2,9.7E1,4.86E2,5.73E2,1.45E2,4E1,2E0,2E0,7E0,1E0,9.94E2,7.76E2,7.8E1,1.2E2,1.8531E4,1.544E3,8E0,4.8E1,1.0383E4,3.73E2,4.594E3,1.6E1,1.09E2,1.4E1,1.9E1,4E0,3.5E1,7E0,1.7E1,1E0,1E1,1.5E1,3.4E2,2.79E2,2.1E1,1.7E1,5.4E1,1.29E2,3.23E2,1.81E2,3E0,1E0,1.959E3,3.04E2,9.81E2,7E0,2.74E2,3.7E1,3E0,1E0,4.66E2,2.57E2,1.5E1,8.2E1,3.63E2,1.23E2,5.71E2,2E0,1.1E2,3.5E1,1.4E1,2.6E1],"tree_param":{"num_deleted":"0","num_feature":"55","num_nodes":"113","size_leaf_vector":"0"}},{"base_weights":[-5.7780884E-2,-1.5702677E-1,-1.1736988E-2,-2.0141685E-1,-1.2225675E-1,-4.403378E-2,1.6634212E-1,-2.5700426E-1,-1.7374183E-1,-7.809361E-2,-1.8897213E-1,-5.748353E-3,-1.3343485E-1,1.0925121E-1,4.3164888E-1,-2.5973153E-1,1.2138379E0,-1.3234864E-1,-2.1759364E-1,-9.174153E-2,1.0553354E0,-1.6537711E-1,-2.2470266E-1,-2.3169996E-2,4.198176E-1,-1.4510031E-1,1.9883033E-2,6.101779E-2,3.5551143E-1,-4.0229885E-3,5.133042E-1,-2.4227847E-1,-4.019366E-1,6.712484E-2,2.3269885E0,-1.963195E-1,-8.324618E-2,-3.015568E-1,-2.017596E-1,-9.951313E-2,6.843935E-1,-1.7642444E-1,1.7259198E0,-1.6872187E-1,1.4705849E0,-2.2937772E-1,2.7906018E-1,-2.1321675E-1,2.0275274E-3,7.6660734E-1,2.702528E-1,-2.2261132E-1,-1.2723623E-1,-1.20633736E-1,8.33247E-1,1.1345018E-1,-1.4840086E-1,7.301903E-2,4.4559142E-1,-2.0295769E-1,6.2399036E-1,3.4267664E-1,7.1432024E-1,-2.3968041E-1,-4.9194467E-1,-3.2662773E-1,-8.970607E-1,4.161669E-1,-3.1547964E-1,-3.5947856E-1,-1.7531584E-1,1.6384326E-2,-1.5433344E-1,-2.659882E-1,-7.6802546E-1,-2.0557387E-1,1.4652325E-1,-1.9463086E-1,-6.3783325E-2,1.4454242E0,-2.4611515E-1,2.0640196E-1,-9.715632E-1,2.0670667E0,2.3087935E-1,-1.6712433E-1,-1.1269182E0,3.0089378E0,-4.5178812E-2,-2.328406E-1,2.2157165E-1,-2.0352527E-1,2.79375E0,-3.2543698E-1,-1.6861326E-1,6.4005055E-2,-1.1609956E-1,4.5733258E-1,1.3109361E0,3.9437863E-1,3.8189102E-2,-2.3417048E-1,2.1771318E-1,1.292679E-1,-1.3289821E-1,4.6592537E-1,-1.7791142E-1,2.0474439E0,-1.4823562E-3,-1.5453176E-1,1.8042319E-1,1.8201702E0,-1.6347778E-1,7.175441E-1,-2.0814483E-1,-2.1712834E-2,5.100222E-1,-1.8271297E-2,-5.663611E-1,2.3515491E-1,1.7611024E0,1.1700224E0,2.3916277E-1,8.544694E-1,1.05252884E-1],"categories":[],"categories_nodes":[],"categories_segments":[],"categories_sizes":[],"default_left":[1,0,1,1,1,1,1,1,1,1,1,1,1,1,1,1,1,1,1,1,1,1,1,1,1,1,1,1,0,1,1,1,1,1,0,1,1,1,1,1,1,1,1,1,1,1,1,1,1,1,1,1,1,1,1,1,0,1,1,1,1,1,1,0,0,0,0,0,0,0,0,0,0,0,0,0,0,0,0,0,0,0,0,0,0,0,0,0,0,0,0,0,0,0,0,0,0,0,0,0,0,0,0,0,0,0,0,0,0,0,0,0,0,0,0,0,0,0,0,0,0,0,0,0,0],"id":6,"left_children":[1,3,5,7,9,11,13,15,17,19,21,23,25,27,29,31,33,35,37,39,41,43,45,47,49,51,53,55,57,59,61,63,65,67,-1,69,71,73,75,77,79,81,83,85,87,89,91,93,95,97,99,101,103,105,107,109,111,113,115,117,119,121,123,-1,-1,-1,-1,-1,-1,-1,-1,-1,-1,-1,-1,-1,-1,-1,-1,-1,-1,-1,-1,-1,-1,-1,-1,-1,-1,-1,-1,-1,-1,-1,-1,-1,-1,-1,-1,-1,-1,-1,-1,-1,-1,-1,-1,-1,-1,-1,-1,-1,-1,-1,-1,-1,-1,-1,-1,-1,-1,-1,-1,-1,-1],"loss_changes":[2.0430798E2,2.1844421E1,1.756661E2,9.527191E0,2.3402931E1,8.849122E1,7.097528E1,8.602798E0,7.5168533E0,7.4100266E1,2.631134E0,1.3422641E2,1.3867523E1,4.5827282E1,2.9529236E1,5.022812E0,4.949659E0,6.708805E0,2.6207123E0,2.8586483E1,4.7386433E1,1.06994705E1,3.0220413E0,8.328563E1,3.672251E1,9.946808E0,6.284643E1,3.547229E1,1.6049911E1,1.6617886E1,2.3730133E1,1.0756073E0,8.05933E0,5.3192735E-1,0E0,3.1206055E0,8.593554E0,5.0718517E0,2.2884827E0,1.5899536E1,3.3638588E1,6.5929356E0,1.8393806E1,2.730812E0,9.463058E0,1.995758E0,1.5131232E1,1.0136154E1,1.12439476E2,3.5426758E1,1.4358681E1,6.912018E0,8.523415E0,1.5839768E1,8.209862E1,4.638642E1,1.9500498E1,2.8056793E1,1.4433182E1,6.768335E0,1.37346525E1,3.226404E1,2.7225357E1,0E0,0E0,0E0,0E0,0E0,0E0,0E0,0E0,0E0,0E0,0E0,0E0,0E0,0E0,0E0,0E0,0E0,0E0,0E0,0E0,0E0,0E0,0E0,0E0,0E0,0E0,0E0,0E0,0E0,0E0,0E0,0E0,0E0,0E0,0E0,0E0,0E0,0E0,0E0,0E0,0E0,0E0,0E0,0E0,0E0,0E0,0E0,0E0,0E0,0E0,0E0,0E0,0E0,0E0,0E0,0E0,0E0,0E0,0E0,0E0,0E0,0E0],"parents":[2147483647,0,0,1,1,2,2,3,3,4,4,5,5,6,6,7,7,8,8,9,9,10,10,11,11,12,12,13,13,14,14,15,15,16,16,17,17,18,18,19,19,20,20,21,21,22,22,23,23,24,24,25,25,26,26,27,27,28,28,29,29,30,30,31,31,32,32,33,33,35,35,36,36,37,37,38,38,39,39,40,40,41,41,42,42,43,43,44,44,45,45,46,46,47,47,48,48,49,49,50,50,51,51,52,52,53,53,54,54,55,55,56,56,57,57,58,58,59,59,60,60,61,61,62,62],"right_children":[2,4,6,8,10,12,14,16,18,20,22,24,26,28,30,32,34,36,38,40,42,44,46,48,50,52,54,56,58,60,62,64,66,68,-1,70,72,74,76,78,80,82,84,86,88,90,92,94,96,98,100,102,104,106,108,110,112,114,116,118,120,122,124,-1,-1,-1,-1,-1,-1,-1,-1,-1,-1,-1,-1,-1,-1,-1,-1,-1,-1,-1,-1,-1,-1,-1,-1,-1,-1,-1,-1,-1,-1,-1,-1,-1,-1,-1,-1,-1,-1,-1,-1,-1,-1,-1,-1,-1,-1,-1,-1,-1,-1,-1,-1,-1,-1,-1,-1,-1,-1,-1,-1,-1,-1],"split_conditions":[-3.9526019E-1,3.8548136E-1,8.786272E-1,-5.744245E-1,-4.967885E-1,-3.5241508E-1,1.314986E0,4.5663033E0,2.4580142E-1,2.3722887E0,4.552942E-1,2.1974058E0,1.314986E0,2.7224653E0,-7.861792E-1,-2.1468583E-1,5.0185E-1,-6.788563E-1,-1.0092804E0,4.004486E0,-5.703752E-1,4.5216385E-1,5.284137E-1,-1.3313901E0,-4.6235296E-1,-5.744245E-1,2.4422417E0,8.414959E-1,-2.1319725E-1,6.5657824E-2,2.9834667E-1,8.950374E-1,8.786272E-1,-2.481472E-2,6.980966E-1,-2.0212955E0,4.9091884E-1,-2.1468583E-1,5.4297147E0,-1.0092804E0,3.293397E0,-1.6193092E-1,-4.4253764E-1,2.352221E0,4.5312703E-1,2.1078527E0,-1.8151894E-1,-2.152048E0,5.5630827E-1,2.4072652E0,6.734556E-1,4.985689E0,-1.8252816E-2,-1.0092804E0,-1.7731264E-2,-1.0793005E0,-5.9964323E0,-3.393213E-1,-1.4626482E0,-1.8665147E-1,1.8411651E0,-2.0071644E-2,6.616566E-1,-7.190412E-2,-1.4758341E-1,-9.798832E-2,-2.6911822E-1,1.2485007E-1,-9.46439E-2,-1.0784357E-1,-5.2594755E-2,4.915298E-3,-4.6300035E-2,-7.979646E-2,-2.3040764E-1,-6.1672162E-2,4.3956976E-2,-5.838926E-2,-1.9134998E-2,4.3362728E-1,-7.3834546E-2,6.192059E-2,-2.9146898E-1,6.2012005E-1,6.926381E-2,-5.01373E-2,-3.3807546E-1,9.026814E-1,-1.35536445E-2,-6.985218E-2,6.64715E-2,-6.1057586E-2,8.3812505E-1,-9.76311E-2,-5.0583977E-2,1.9201517E-2,-3.482987E-2,1.3719977E-1,3.9328083E-1,1.18313596E-1,1.1456731E-2,-7.0251144E-2,6.531396E-2,3.8780373E-2,-3.9869465E-2,1.3977762E-1,-5.3373426E-2,6.142332E-1,-4.4470688E-4,-4.635953E-2,5.412696E-2,5.460511E-1,-4.9043335E-2,2.1526323E-1,-6.244345E-2,-6.5138503E-3,1.5300667E-1,-5.4813894E-3,-1.6990834E-1,7.054648E-2,5.2833074E-1,3.5100672E-1,7.174884E-2,2.5634083E-1,3.1575866E-2],"split_indices":[14,10,4,17,6,6,12,4,2,8,2,8,12,4,2,11,3,2,42,11,2,2,9,2,9,17,8,2,10,11,18,5,4,1,0,2,3,11,33,42,1,1,9,5,2,4,1,2,2,8,2,11,7,42,6,2,10,3,2,11,31,7,2,0,0,0,0,0,0,0,0,0,0,0,0,0,0,0,0,0,0,0,0,0,0,0,0,0,0,0,0,0,0,0,0,0,0,0,0,0,0,0,0,0,0,0,0,0,0,0,0,0,0,0,0,0,0,0,0,0,0,0,0,0,0],"split_type":[0,0,0,0,0,0,0,0,0,0,0,0,0,0,0,0,0,0,0,0,0,0,0,0,0,0,0,0,0,0,0,0,0,0,0,0,0,0,0,0,0,0,0,0,0,0,0,0,0,0,0,0,0,0,0,0,0,0,0,0,0,0,0,0,0,0,0,0,0,0,0,0,0,0,0,0,0,0,0,0,0,0,0,0,0,0,0,0,0,0,0,0,0,0,0,0,0,0,0,0,0,0,0,0,0,0,0,0,0,0,0,0,0,0,0,0,0,0,0,0,0,0,0,0,0],"sum_hessian":[4.4709E4,1.4168E4,3.0541E4,6.221E3,7.947E3,2.5853E4,4.688E3,2.065E3,4.156E3,4.783E3,3.164E3,1.8102E4,7.751E3,3.859E3,8.29E2,2.062E3,3E0,2.14E3,2.016E3,4.727E3,5.6E1,1.909E3,1.255E3,1.7391E4,7.11E2,7.203E3,5.48E2,3.228E3,6.31E2,1.31E2,6.98E2,1.839E3,2.23E2,2E0,1E0,9.28E2,1.212E3,3.17E2,1.699E3,4.681E3,4.6E1,2E1,3.6E1,1.906E3,3E0,1.244E3,1.1E1,2.035E3,1.5356E4,2.13E2,4.98E2,1.347E3,5.856E3,4.68E2,8E1,2.582E3,6.46E2,1.53E2,4.78E2,1E2,3.1E1,3.79E2,3.19E2,1.822E3,1.7E1,1.95E2,2.8E1,1E0,1E0,1.04E2,8.24E2,5.05E2,7.07E2,2.96E2,2.1E1,1.681E3,1.8E1,1.277E3,3.404E3,2.5E1,2.1E1,1.4E1,6E0,2.9E1,7E0,1.904E3,2E0,1E0,2E0,1.235E3,9E0,1E1,1E0,5.77E2,1.458E3,1.0072E4,5.284E3,1.37E2,7.6E1,3.24E2,1.74E2,1.313E3,3.4E1,1.26E2,5.73E3,4.1E1,4.27E2,3.2E1,4.8E1,5.16E2,2.066E3,4E0,6.42E2,4.6E1,1.07E2,5.8E1,4.2E2,6.7E1,3.3E1,2.4E1,7E0,4.1E1,3.38E2,2.59E2,6E1],"tree_param":{"num_deleted":"0","num_feature":"55","num_nodes":"125","size_leaf_vector":"0"}},{"base_weights":[-4.034021E-2,-7.8170635E-3,-1.2987718E-1,-6.871093E-2,6.131939E-2,-1.3279098E-1,4.2922586E-1,-2.2052856E-1,-5.3666435E-2,1.187887E-1,-7.135718E-2,-1.1019594E-1,-1.9646287E-1,1.5555614E-1,1.3564109E0,-2.2765335E-1,7.307952E-2,-6.954487E-2,6.72042E-2,9.649421E-2,6.13498E-1,-8.735225E-2,1.1360031E-1,-1.3441414E-1,-6.5164104E-2,-1.7879516E-1,-3.889648E-1,1.2970623E0,2.5265312E-2,5.080904E-1,2.132147E0,-1.7599168E-1,-2.832067E-1,-3.4610635E-1,5.580697E-1,-1.19094186E-1,-2.7981611E-2,2.0769632E-1,-9.292395E-2,1.3096552E-1,-1.9146205E-1,7.32991E-1,-2.314702E-1,-6.493869E-2,-1.7360002E-1,-1.4474352E-2,7.3793995E-1,-9.985139E-2,-1.5736605E-1,-3.4470815E-2,-1.8288846E-1,-1.8439506E-1,2.5102428E-1,-4.2417663E-1,-1.0486828E-1,4.220992E-1,1.7396713E0,-1.8054067E-1,6.7780566E-1,-6.600316E-2,1.0986847E0,3.9355445E-1,2.3563201E0,-2.2390784E-1,-1.2322457E-1,-2.7043176E-1,-4.573193E-1,-4.158835E-1,-1.0234954E-1,1.3551817E0,-7.2381675E-2,-1.14888005E-1,-4.3013826E-1,1.450239E-2,-1.06124684E-1,-1.2461834E-1,3.0493113E-1,2.9563496E-1,-1.2028739E-1,-1.1477947E-1,1.8872343E-1,-1.2518156E-1,-3.1371278E-1,2.4606775E-1,8.673858E-1,-2.740995E-1,1.0991999E0,-1.4933154E-1,-3.297804E-2,-1.6080743E-1,-3.5919052E-1,-4.239682E-2,1.0379177E0,-3.1392133E-1,1.3932885E0,-7.219283E-2,-1.5417157E-1,-1.3199846E-1,-1.7855525E-1,2.8227898E-3,-1.0519423E-1,-1.6820689E-1,-9.28643E-1,-1.851194E-1,9.244077E-1,-1.2306371E-1,8.743876E-1,-3.9879692E-1,-6.5898365E-1,5.5591184E-1,-1.4682317E-1,-2.5811288E-1,4.8517218E-1,1.2510599E0,-8.416151E-3,-1.635152E-1,5.350993E-2,3.1184506E-1,1.2570162E0],"categories":[],"categories_nodes":[],"categories_segments":[],"categories_sizes":[],"default_left":[1,1,1,1,1,1,1,1,1,1,1,1,1,1,1,1,1,0,1,1,1,1,1,1,1,1,1,1,1,0,1,1,1,1,1,1,1,1,1,1,1,1,1,1,1,1,1,1,1,1,1,1,1,1,1,0,0,1,1,1,1,0,0,0,0,0,0,0,0,0,0,0,0,0,0,0,0,0,0,0,0,0,0,0,0,0,0,0,0,0,0,0,0,0,0,0,0,0,0,0,0,0,0,0,0,0,0,0,0,0,0,0,0,0,0,0,0,0,0],"id":7,"left_children":[1,3,5,7,9,11,13,15,17,19,21,23,25,27,29,31,33,35,37,39,41,43,45,47,49,51,53,55,57,59,61,63,65,67,69,71,73,75,77,79,81,83,85,87,89,91,93,95,97,99,101,103,105,107,109,-1,-1,111,113,115,117,-1,-1,-1,-1,-1,-1,-1,-1,-1,-1,-1,-1,-1,-1,-1,-1,-1,-1,-1,-1,-1,-1,-1,-1,-1,-1,-1,-1,-1,-1,-1,-1,-1,-1,-1,-1,-1,-1,-1,-1,-1,-1,-1,-1,-1,-1,-1,-1,-1,-1,-1,-1,-1,-1,-1,-1,-1,-1],"loss_changes":[1.3019556E2,1.3808333E2,1.9464722E1,3.9819176E1,1.1712587E2,1.702945E1,1.5521034E1,3.305107E0,3.0459118E1,1.18152695E2,1.3745811E1,9.533913E0,1.0483963E1,7.2548895E0,8.129698E0,4.3555756E0,7.918591E0,2.8882248E1,4.1480793E1,1.0183837E2,4.6816772E1,8.250877E0,2.9596655E1,4.4972534E0,1.1057767E1,6.8916473E0,2.5564423E0,1.2020187E0,6.165724E0,2.7849674E0,1.8008766E0,1.9900684E0,1.5178452E0,3.1461644E-1,9.143818E0,8.321144E0,2.5328526E1,3.1768932E1,9.200611E0,1.3005032E2,8.849541E0,2.6289734E1,3.5913706E0,9.149544E0,2.0338917E0,9.094703E0,4.3865543E1,3.4038658E0,1.8131409E0,6.409498E0,6.7744236E0,2.426361E0,8.735737E0,1.1138115E0,9.133097E-1,0E0,0E0,1.9326576E0,4.3377047E0,6.701951E-2,1.06331825E-1,0E0,0E0,0E0,0E0,0E0,0E0,0E0,0E0,0E0,0E0,0E0,0E0,0E0,0E0,0E0,0E0,0E0,0E0,0E0,0E0,0E0,0E0,0E0,0E0,0E0,0E0,0E0,0E0,0E0,0E0,0E0,0E0,0E0,0E0,0E0,0E0,0E0,0E0,0E0,0E0,0E0,0E0,0E0,0E0,0E0,0E0,0E0,0E0,0E0,0E0,0E0,0E0,0E0,0E0,0E0,0E0,0E0,0E0],"parents":[2147483647,0,0,1,1,2,2,3,3,4,4,5,5,6,6,7,7,8,8,9,9,10,10,11,11,12,12,13,13,14,14,15,15,16,16,17,17,18,18,19,19,20,20,21,21,22,22,23,23,24,24,25,25,26,26,27,27,28,28,29,29,30,30,31,31,32,32,33,33,34,34,35,35,36,36,37,37,38,38,39,39,40,40,41,41,42,42,43,43,44,44,45,45,46,46,47,47,48,48,49,49,50,50,51,51,52,52,53,53,54,54,57,57,58,58,59,59,60,60],"right_children":[2,4,6,8,10,12,14,16,18,20,22,24,26,28,30,32,34,36,38,40,42,44,46,48,50,52,54,56,58,60,62,64,66,68,70,72,74,76,78,80,82,84,86,88,90,92,94,96,98,100,102,104,106,108,110,-1,-1,112,114,116,118,-1,-1,-1,-1,-1,-1,-1,-1,-1,-1,-1,-1,-1,-1,-1,-1,-1,-1,-1,-1,-1,-1,-1,-1,-1,-1,-1,-1,-1,-1,-1,-1,-1,-1,-1,-1,-1,-1,-1,-1,-1,-1,-1,-1,-1,-1,-1,-1,-1,-1,-1,-1,-1,-1,-1,-1,-1,-1],"split_conditions":[6.141094E-1,-3.5059822E-1,3.9516907E0,-9.652109E-1,-4.8366368E-1,1.3579552E0,3.6932096E0,2.4072652E0,1.6377811E0,2.0924764E0,1.314986E0,-6.0071754E-1,-2.1468583E-1,-1.0092804E0,-2.4272019E-1,-6.706706E-1,-1.8543655E-1,4.0942848E-1,-5.164758E-1,1.2243975E0,1.4018644E0,1.012256E0,2.4422417E0,-1.1081787E-1,-2.4272019E-1,2.4422417E0,3.293397E0,-1.3525321E0,5.1453006E-1,2.8969276E-1,6.3462067E-1,1.1104953E0,1.664457E-1,5.6508493E-1,-7.159305E-1,3.293397E0,-3.8522723E-1,-8.730552E-1,-1.8142955E-2,-1.0744846E0,1.5698062E0,-1.3966103E0,2.490288E0,-8.8594115E-1,1.6363958E-1,3.6443844E0,-2.7075458E-1,1.0551634E0,-3.8309163E-1,3.9437273E-1,8.241935E0,1.4717106E0,1.6264086E0,2.7709742E0,-2.0389024E-2,1.2662977E-1,5.219014E-1,1.4696422E0,1.1593164E0,8.910731E-1,8.0571175E-1,1.1806634E-1,7.0689607E-1,-6.7172356E-2,-3.6967374E-2,-8.112953E-2,-1.371958E-1,-1.2476506E-1,-3.0704863E-2,4.0655452E-1,-2.1714503E-2,-3.4466404E-2,-1.2904148E-1,4.350717E-3,-3.1837407E-2,-3.73855E-2,9.1479346E-2,8.869049E-2,-3.6086217E-2,-3.443384E-2,5.6617033E-2,-3.755447E-2,-9.4113834E-2,7.382033E-2,2.6021576E-1,-8.222985E-2,3.2976E-1,-4.4799462E-2,-9.893412E-3,-4.824223E-2,-1.0775716E-1,-1.2719047E-2,3.1137532E-1,-9.4176404E-2,4.1798657E-1,-2.165785E-2,-4.6251472E-2,-3.959954E-2,-5.356658E-2,8.46837E-4,-3.155827E-2,-5.0462067E-2,-2.785929E-1,-5.5535823E-2,2.7732232E-1,-3.6919117E-2,2.623163E-1,-1.1963908E-1,-1.976951E-1,1.6677356E-1,-4.4046953E-2,-7.743387E-2,1.4555167E-1,3.75318E-1,-2.5248453E-3,-4.905456E-2,1.605298E-2,9.355352E-2,3.7710488E-1],"split_indices":[3,4,4,4,6,3,34,8,8,8,12,8,11,42,11,8,1,10,6,2,2,2,8,2,11,8,1,2,2,10,3,44,5,10,3,1,6,2,7,2,2,3,1,2,53,4,11,3,9,2,41,1,3,11,7,0,0,9,3,3,3,0,0,0,0,0,0,0,0,0,0,0,0,0,0,0,0,0,0,0,0,0,0,0,0,0,0,0,0,0,0,0,0,0,0,0,0,0,0,0,0,0,0,0,0,0,0,0,0,0,0,0,0,0,0,0,0,0,0],"split_type":[0,0,0,0,0,0,0,0,0,0,0,0,0,0,0,0,0,0,0,0,0,0,0,0,0,0,0,0,0,0,0,0,0,0,0,0,0,0,0,0,0,0,0,0,0,0,0,0,0,0,0,0,0,0,0,0,0,0,0,0,0,0,0,0,0,0,0,0,0,0,0,0,0,0,0,0,0,0,0,0,0,0,0,0,0,0,0,0,0,0,0,0,0,0,0,0,0,0,0,0,0,0,0,0,0,0,0,0,0,0,0,0,0,0,0,0,0,0,0],"sum_hessian":[4.4709E4,3.2797E4,1.1912E4,1.7438E4,1.5359E4,1.1851E4,6.1E1,1.571E3,1.5867E4,1.0717E4,4.642E3,8.749E3,3.102E3,4.8E1,1.3E1,1.534E3,3.7E1,1.4025E4,1.842E3,1.0256E4,4.61E2,4.273E3,3.69E2,5.688E3,3.061E3,2.843E3,2.59E2,4E0,4.4E1,7E0,6E0,7.97E2,7.37E2,2E1,1.7E1,6.397E3,7.628E3,9.81E2,8.61E2,9.16E3,1.096E3,4.04E2,5.7E1,3.393E3,8.8E2,3.07E2,6.2E1,2.272E3,3.416E3,2.429E3,6.32E2,2.807E3,3.6E1,2.3E2,2.9E1,2E0,2E0,3.4E1,1E1,4E0,3E0,1E0,5E0,4.16E2,3.81E2,6.89E2,4.8E1,1.5E1,5E0,7E0,1E1,6.313E3,8.4E1,4.942E3,2.686E3,2.22E2,7.59E2,5.6E1,8.05E2,1.743E3,7.417E3,7.12E2,3.84E2,8.8E1,3.16E2,5.6E1,1E0,9.31E2,2.462E3,8.25E2,5.5E1,3E2,7E0,2.4E1,3.8E1,1.507E3,7.65E2,1.558E3,1.858E3,1.591E3,8.38E2,6.21E2,1.1E1,2.806E3,1E0,2.3E1,1.3E1,2.1E2,2E1,1E0,2.8E1,3.1E1,3E0,5E0,5E0,2E0,2E0,1E0,2E0],"tree_param":{"num_deleted":"0","num_feature":"55","num_nodes":"119","size_leaf_vector":"0"}},{"base_weights":[-2.8175738E-2,-3.5462003E-2,2.1229796E-1,-1.1622178E-2,-9.9317476E-2,1.961525E-1,1.1107237E0,2.3815783E-2,-8.510975E-2,-8.201379E-2,-1.8292849E-1,2.3193005E-1,-4.228911E-1,1.3572079E0,-4.8060894E-2,-8.075337E-2,8.357884E-2,-7.344538E-2,-1.7104144E-1,-5.7265494E-2,-1.4010184E-1,-1.8963303E-1,1.4564028E-1,1.6352007E-1,6.461899E-1,8.22539E-3,-8.1927454E-1,1.3936255E0,3.5084498E-1,-4.368668E-1,3.567653E-1,-1.925329E-1,-5.919993E-2,4.1194998E-2,2.3240897E-1,-1.1671318E-1,-5.1522132E-2,-1.5260702E-1,-3.5889018E-1,-6.1550006E-2,9.898944E-1,-1.4491013E-1,2.0106885E-1,-1.9431862E-1,1.5683545E-1,-3.991763E-2,1.2347144E0,1.8929037E-1,-4.44986E-1,3.6545548E-1,1.0540497E0,-1.959999E-1,1.027981E0,-6.0150874E-1,-1.2228276E0,9.7028774E-1,1.6352669E0,5.0082684E-2,4.8506528E-1,-3.184774E-1,-1.7246915E-1,-1.3667186E-1,-2.7208649E-2,8.2131885E-2,-5.514323E-2,3.0588603E-1,-3.6608424E-2,-1.10200584E-1,-2.731274E-1,-7.338646E-2,1.9809764E-2,-1.01022944E-1,-2.080232E-1,-3.9588493E-1,-2.6859002E-2,-3.1410488E-1,-5.2938685E-2,-3.522822E-2,3.5571046E0,-1.3771214E-1,-3.319811E-1,-6.279234E-2,1.4916507E0,-1.7766175E-1,-3.3650082E-1,1.0559826E0,-2.1066518E-1,-2.324912E-1,4.8402277E-1,2.3940322E0,5.6547515E-2,2.527704E-1,-6.399868E-2,1.0665888E0,-5.0637084E-1,9.118263E-2,7.524197E-1,1.1857603E0,-8.9533824E-1,-7.361876E-1,-3.0278519E-2,1.2593434E0,-6.4415455E-2,-9.143976E-1,-1.602719E-1,-1.392446E0,-2.4982373E-1,1.1448802E0,4.6582714E-1],"categories":[],"categories_nodes":[],"categories_segments":[],"categories_sizes":[],"default_left":[1,1,1,1,1,1,1,1,1,1,1,1,1,1,1,1,1,0,1,1,1,1,1,1,1,1,1,1,0,0,1,1,1,1,1,1,1,1,1,1,1,1,1,1,1,1,1,1,1,1,1,1,1,1,1,1,0,0,0,0,0,0,0,0,0,0,0,0,0,0,0,0,0,0,0,0,0,0,0,0,0,0,0,0,0,0,0,0,0,0,0,0,0,0,0,0,0,0,0,0,0,0,0,0,0,0,0,0,0],"id":8,"left_children":[1,3,5,7,9,11,13,15,17,19,21,23,25,27,29,31,33,35,37,39,41,43,45,47,49,51,53,55,-1,-1,57,59,61,63,65,67,69,71,73,75,77,79,81,83,85,87,89,91,93,95,97,99,101,103,105,107,-1,-1,-1,-1,-1,-1,-1,-1,-1,-1,-1,-1,-1,-1,-1,-1,-1,-1,-1,-1,-1,-1,-1,-1,-1,-1,-1,-1,-1,-1,-1,-1,-1,-1,-1,-1,-1,-1,-1,-1,-1,-1,-1,-1,-1,-1,-1,-1,-1,-1,-1,-1,-1],"loss_changes":[7.8346375E1,6.6060715E1,1.8856865E1,8.229631E1,1.7052643E1,2.8735264E1,6.6345367E0,1.3324336E2,1.0292488E1,1.4045761E1,4.481888E0,3.455356E1,1.2139747E1,2.0739365E-1,9.42853E-1,1.8669804E1,8.5570984E1,8.582344E0,4.197651E0,3.0825329E1,4.819248E0,3.2480698E0,8.334826E0,1.656537E1,1.9423347E1,7.4905806E0,2.5160217E0,2.546463E-1,0E0,0E0,9.374878E-2,3.1113014E0,1.6111012E1,4.165487E1,5.9449387E1,3.070713E0,9.376353E0,3.1806087E0,1.3282585E0,1.4837471E1,7.381305E1,3.832306E0,1.4055576E1,4.5726395E0,9.144262E0,3.7448258E0,8.059842E0,1.6239681E1,4.5299635E0,1.0969307E1,1.9034492E1,2.663329E0,1.597558E0,3.4429579E0,1.6326046E0,2.593584E-1,0E0,0E0,0E0,0E0,0E0,0E0,0E0,0E0,0E0,0E0,0E0,0E0,0E0,0E0,0E0,0E0,0E0,0E0,0E0,0E0,0E0,0E0,0E0,0E0,0E0,0E0,0E0,0E0,0E0,0E0,0E0,0E0,0E0,0E0,0E0,0E0,0E0,0E0,0E0,0E0,0E0,0E0,0E0,0E0,0E0,0E0,0E0,0E0,0E0,0E0,0E0,0E0,0E0],"parents":[2147483647,0,0,1,1,2,2,3,3,4,4,5,5,6,6,7,7,8,8,9,9,10,10,11,11,12,12,13,13,14,14,15,15,16,16,17,17,18,18,19,19,20,20,21,21,22,22,23,23,24,24,25,25,26,26,27,27,30,30,31,31,32,32,33,33,34,34,35,35,36,36,37,37,38,38,39,39,40,40,41,41,42,42,43,43,44,44,45,45,46,46,47,47,48,48,49,49,50,50,51,51,52,52,53,53,54,54,55,55],"right_children":[2,4,6,8,10,12,14,16,18,20,22,24,26,28,30,32,34,36,38,40,42,44,46,48,50,52,54,56,-1,-1,58,60,62,64,66,68,70,72,74,76,78,80,82,84,86,88,90,92,94,96,98,100,102,104,106,108,-1,-1,-1,-1,-1,-1,-1,-1,-1,-1,-1,-1,-1,-1,-1,-1,-1,-1,-1,-1,-1,-1,-1,-1,-1,-1,-1,-1,-1,-1,-1,-1,-1,-1,-1,-1,-1,-1,-1,-1,-1,-1,-1,-1,-1,-1,-1,-1,-1,-1,-1,-1,-1],"split_conditions":[2.1078527E0,7.30473E-1,2.4824529E0,5.5122447E-1,1.4680834E0,8.9190495E-1,6.110155E0,-7.554295E-1,1.6438003E0,1.871397E-1,2.4422417E0,5.702764E-1,2.1135175E-1,5.540494E-1,2.3231684E-1,-1.850571E0,9.382503E-1,2.1785134E-1,-1.8665147E-1,1.8262325E-1,2.4422417E0,3.5258887E0,-1.6193092E-1,4.3010455E-1,2.9834667E-1,3.9516907E0,1.987925E0,2.7224653E0,1.05253495E-1,-1.3106005E-1,1.0815199E1,-2.5299072E0,-1.2274842E0,4.2629063E-1,-3.3929026E-1,8.950374E-1,-2.5095212E-1,-7.1858335E-1,1.4795458E0,-2.3428311E0,-1.3450767E-1,1.8411651E0,1.389343E0,-2.1468583E-1,-4.4332314E-1,2.4179848E-1,-1.5152266E-2,1.8674058E-1,-8.025768E-1,-4.7661585E-1,6.102835E0,1.1589981E0,1.7224374E0,3.302604E-1,-5.2303827E-1,-8.438051E-3,4.9058008E-1,1.5024805E-2,1.4551958E-1,-9.554322E-2,-5.1740747E-2,-4.100156E-2,-8.162595E-3,2.4639567E-2,-1.654297E-2,9.176581E-2,-1.0982527E-2,-3.306018E-2,-8.193822E-2,-2.2015939E-2,5.9429295E-3,-3.0306885E-2,-6.2406965E-2,-1.1876548E-1,-8.057701E-3,-9.423147E-2,-1.5881605E-2,-1.0568466E-2,1.0671314E0,-4.131364E-2,-9.959433E-2,-1.8837702E-2,4.4749522E-1,-5.3298526E-2,-1.0095025E-1,3.1679478E-1,-6.319956E-2,-6.974736E-2,1.4520684E-1,7.182097E-1,1.6964255E-2,7.583112E-2,-1.9199604E-2,3.1997663E-1,-1.5191126E-1,2.735479E-2,2.2572592E-1,3.557281E-1,-2.6860148E-1,-2.2085628E-1,-9.083556E-3,3.7780303E-1,-1.9324638E-2,-2.743193E-1,-4.8081573E-2,-4.1773382E-1,-7.4947126E-2,3.4346408E-1,1.3974814E-1],"split_indices":[4,2,1,3,2,1,1,2,3,3,8,11,29,3,2,2,8,10,11,3,8,40,1,11,18,4,5,4,0,0,1,2,3,52,6,5,8,2,1,3,1,31,2,11,8,10,7,25,2,10,4,11,1,9,6,13,0,0,0,0,0,0,0,0,0,0,0,0,0,0,0,0,0,0,0,0,0,0,0,0,0,0,0,0,0,0,0,0,0,0,0,0,0,0,0,0,0,0,0,0,0,0,0,0,0,0,0,0,0],"split_type":[0,0,0,0,0,0,0,0,0,0,0,0,0,0,0,0,0,0,0,0,0,0,0,0,0,0,0,0,0,0,0,0,0,0,0,0,0,0,0,0,0,0,0,0,0,0,0,0,0,0,0,0,0,0,0,0,0,0,0,0,0,0,0,0,0,0,0,0,0,0,0,0,0,0,0,0,0,0,0,0,0,0,0,0,0,0,0,0,0,0,0,0,0,0,0,0,0,0,0,0,0,0,0,0,0,0,0,0,0],"sum_hessian":[4.4709E4,4.3395E4,1.314E3,3.1599E4,1.1796E4,1.292E3,2.2E1,2.1319E4,1.028E4,9.775E3,2.021E3,1.222E3,7E1,1.8E1,4E0,7.753E3,1.3566E4,9.053E3,1.227E3,6.856E3,2.919E3,1.981E3,4E1,1.05E3,1.72E2,3.4E1,3.6E1,1.7E1,1E0,2E0,2E0,1.252E3,6.501E3,1.056E4,3.006E3,3.043E3,6.01E3,1.119E3,1.08E2,6.829E3,2.7E1,2.879E3,4E1,1.955E3,2.6E1,3.5E1,5E0,1.008E3,4.2E1,1.03E2,6.9E1,2.9E1,5E0,2.5E1,1.1E1,8E0,9E0,1E0,1E0,1.7E2,1.082E3,1.899E3,4.602E3,7.411E3,3.149E3,2.361E3,6.45E2,2.923E3,1.2E2,4.6E3,1.41E3,5.81E2,5.38E2,9.7E1,1.1E1,2.24E2,6.605E3,2E1,7E0,2.774E3,1.05E2,3.4E1,6E0,1.752E3,2.03E2,7E0,1.9E1,2.6E1,9E0,2E0,3E0,8.06E2,2.02E2,1E0,4.1E1,6.1E1,4.2E1,6.5E1,4E0,6E0,2.3E1,4E0,1E0,1.4E1,1.1E1,9E0,2E0,5E0,3E0],"tree_param":{"num_deleted":"0","num_feature":"55","num_nodes":"109","size_leaf_vector":"0"}},{"base_weights":[-1.9663235E-2,-5.9919506E-2,1.4068977E-2,-3.8684464E-1,-5.4470755E-2,5.5101745E-2,-5.439252E-2,-3.2881576E-1,-7.8245467E-1,-1.12341896E-1,-3.1319305E-2,3.1548892E-3,1.51961E-1,-7.016907E-2,2.0967713E-2,-5.332798E-1,-2.5854686E-1,-1.0642667E0,-5.267512E-1,-1.2930296E-1,1.0347029E-1,-5.08781E-2,8.667296E-2,-2.5945704E-3,4.8401862E-1,1.3565895E-1,8.3266085E-1,-9.572741E-2,-2.717121E-2,-2.5212761E-2,2.4198204E-1,-4.015942E-1,-6.847196E-1,-2.7339894E-1,4.3477154E-1,-9.117559E-2,-1.1733847E0,-2.4345955E-1,-8.3941776E-1,-1.2072297E-1,-4.549593E-1,3.381046E-2,5.352587E-1,-1.9755509E-2,-9.044945E-2,1.585724E-1,-9.162854E-2,2.3053866E-2,-9.927491E-2,7.505963E-1,-1.8882088E-1,9.403693E-2,3.9883828E-1,2.681487E-1,1.1397908E0,-7.378375E-2,-1.5732592E-1,-3.5341524E-2,2.3536746E-1,-2.936408E-2,7.499411E-1,3.9900444E-2,9.587067E-1,-2.9328007E-1,-5.0607574E-1,-7.1224266E-1,9.800947E-2,-9.833622E-2,-3.1761068E-1,-1.2003624E-1,6.0348254E-1,-2.2390291E-1,8.713952E-2,-1.307129E0,-1.1353481E-1,-7.872279E-2,-4.4998813E-1,-1.2562913E-1,4.415874E-1,8.589658E-1,-4.910551E-1,1.1945274E-1,-1.1390302E-1,1.9767543E0,2.9864645E-1,-7.546202E-2,2.5189387E-2,-4.3252923E-2,-1.2402595E-1,1.2734625E-1,5.7500005E-1,-1.2035659E-1,1.8791607E-1,1.7110765E-2,4.5896447E-1,-9.3296625E-2,-3.2299778E-1,9.504313E-1,6.360266E-2,-3.4194756E-1,5.827616E-1,1.3057618E-1,-8.4137335E-2,3.464382E-1,1.2215055E0,5.2556336E-1,-6.853589E-1,1.7259438E0,5.4013425E-1,-6.726311E-2,-1.6941051E-1,-1.60738E-1,7.1828914E-1,-2.6645029E-2,-2.2918685E-1,1.1730211E-1,8.802446E-1,-3.349049E-2,6.4175355E-1,-1.18971914E-1,2.9817097E0,1.7353426E-1,-1.8610536E-1,1.4117699E0,5.007654E-2],"categories":[],"categories_nodes":[],"categories_segments":[],"categories_sizes":[],"default_left":[0,1,1,1,1,1,1,1,1,1,1,1,1,1,1,1,1,1,1,1,1,1,1,1,1,1,1,1,1,1,1,1,1,1,1,1,1,1,0,1,0,1,1,1,1,1,1,1,1,1,1,1,1,1,1,1,1,1,1,1,1,1,1,0,0,0,0,0,0,0,0,0,0,0,0,0,0,0,0,0,0,0,0,0,0,0,0,0,0,0,0,0,0,0,0,0,0,0,0,0,0,0,0,0,0,0,0,0,0,0,0,0,0,0,0,0,0,0,0,0,0,0,0,0,0],"id":9,"left_children":[1,3,5,7,9,11,13,15,17,19,21,23,25,27,29,31,33,35,37,39,41,43,45,47,49,51,53,55,57,59,61,63,65,67,69,71,73,75,-1,77,79,81,83,85,87,89,91,93,95,97,99,101,103,105,107,109,111,113,115,117,119,121,123,-1,-1,-1,-1,-1,-1,-1,-1,-1,-1,-1,-1,-1,-1,-1,-1,-1,-1,-1,-1,-1,-1,-1,-1,-1,-1,-1,-1,-1,-1,-1,-1,-1,-1,-1,-1,-1,-1,-1,-1,-1,-1,-1,-1,-1,-1,-1,-1,-1,-1,-1,-1,-1,-1,-1,-1,-1,-1,-1,-1,-1,-1],"loss_changes":[6.071403E1,3.6289642E1,6.8341545E1,7.41029E0,2.6860828E1,7.653418E1,1.08408985E1,4.071785E0,2.465929E0,2.0983833E1,3.3058838E1,2.737738E1,5.8811066E1,8.28241E0,1.6122238E1,1.2007618E0,2.3842516E0,1.910471E0,1.9214559E0,1.4787476E1,1.2554635E1,1.5130428E1,2.6128422E1,2.426863E1,2.1127316E1,5.678119E1,2.1193306E1,6.3792152E0,6.0401235E0,4.22783E0,3.950221E1,3.2688475E-1,7.8072834E-1,1.6405716E0,5.4045075E-1,9.051265E-2,2.261324E0,4.408955E-1,0E0,1.4337654E1,6.871893E0,4.5804434E0,1.9192026E1,1.7225014E1,8.56625E0,1.8807762E1,4.7286496E0,2.003091E1,2.7143764E0,1.1471519E1,4.216369E0,2.9177372E1,3.0097168E1,1.1405306E1,2.7187004E1,2.163538E0,3.8231564E0,4.5926876E0,6.3684454E0,3.6243625E0,1.392923E1,6.495527E0,2.4629318E1,0E0,0E0,0E0,0E0,0E0,0E0,0E0,0E0,0E0,0E0,0E0,0E0,0E0,0E0,0E0,0E0,0E0,0E0,0E0,0E0,0E0,0E0,0E0,0E0,0E0,0E0,0E0,0E0,0E0,0E0,0E0,0E0,0E0,0E0,0E0,0E0,0E0,0E0,0E0,0E0,0E0,0E0,0E0,0E0,0E0,0E0,0E0,0E0,0E0,0E0,0E0,0E0,0E0,0E0,0E0,0E0,0E0,0E0,0E0,0E0,0E0,0E0],"parents":[2147483647,0,0,1,1,2,2,3,3,4,4,5,5,6,6,7,7,8,8,9,9,10,10,11,11,12,12,13,13,14,14,15,15,16,16,17,17,18,18,19,19,20,20,21,21,22,22,23,23,24,24,25,25,26,26,27,27,28,28,29,29,30,30,31,31,32,32,33,33,34,34,35,35,36,36,37,37,39,39,40,40,41,41,42,42,43,43,44,44,45,45,46,46,47,47,48,48,49,49,50,50,51,51,52,52,53,53,54,54,55,55,56,56,57,57,58,58,59,59,60,60,61,61,62,62],"right_children":[2,4,6,8,10,12,14,16,18,20,22,24,26,28,30,32,34,36,38,40,42,44,46,48,50,52,54,56,58,60,62,64,66,68,70,72,74,76,-1,78,80,82,84,86,88,90,92,94,96,98,100,102,104,106,108,110,112,114,116,118,120,122,124,-1,-1,-1,-1,-1,-1,-1,-1,-1,-1,-1,-1,-1,-1,-1,-1,-1,-1,-1,-1,-1,-1,-1,-1,-1,-1,-1,-1,-1,-1,-1,-1,-1,-1,-1,-1,-1,-1,-1,-1,-1,-1,-1,-1,-1,-1,-1,-1,-1,-1,-1,-1,-1,-1,-1,-1,-1,-1,-1,-1,-1,-1],"split_conditions":[3.8548136E-1,-2.436913E0,-4.8366368E-1,8.950374E-1,-5.744245E-1,2.6401448E-1,3.4649098E-1,-2.9065843E0,-2.6904178E0,3.234371E0,1.1830862E0,2.4072652E0,2.337312E0,2.9834667E-1,2.1274529E0,-3.5059822E-1,2.337312E0,-1.074605E0,-1.552153E-1,8.950374E-1,1.8674058E-1,1.9234467E-1,-3.6553997E-1,1.3959035E0,3.22963E-1,1.314986E0,-1.5868622E-1,-6.3569415E-1,-8.586162E-2,8.731033E0,-2.4272019E-1,7.109028E-1,3.5258887E0,-1.351882E0,-1.8935415E-1,-1.1977482E0,8.111911E-1,-2.509869E0,-2.5182533E-1,4.3461018E0,-6.199983E0,5.626893E-1,-1.9949574E-2,-6.4996076E-1,-3.3170362E-3,4.2629063E-1,1.314986E0,2.2199733E0,8.950374E-1,4.2629063E-1,-5.6155566E-2,4.2629063E-1,3.5258887E0,-1.8665147E-1,4.1292173E-1,6.9643104E-1,4.5379963E0,1.3368057E0,8.9527845E-1,3.6443844E0,1.6363958E-1,-4.4253764E-1,-8.438051E-3,-8.7984025E-2,-1.5182273E-1,-2.136728E-1,2.940284E-2,-2.9500866E-2,-9.528321E-2,-3.6010873E-2,1.8104477E-1,-6.717087E-2,2.6141856E-2,-3.9213872E-1,-3.4060445E-2,-2.3616837E-2,-1.3499644E-1,-3.768874E-2,1.3247623E-1,2.5768974E-1,-1.4731653E-1,3.583582E-2,-3.4170907E-2,5.9302634E-1,8.959394E-2,-2.2638608E-2,7.556816E-3,-1.2975877E-2,-3.7207786E-2,3.8203876E-2,1.7250001E-1,-3.6106978E-2,5.637482E-2,5.13323E-3,1.3768935E-1,-2.7988989E-2,-9.689934E-2,2.851294E-1,1.90808E-2,-1.0258427E-1,1.7482848E-1,3.9172854E-2,-2.5241202E-2,1.03931464E-1,3.6645168E-1,1.5766901E-1,-2.0560767E-1,5.1778316E-1,1.6204028E-1,-2.0178935E-2,-5.0823156E-2,-4.8221406E-2,2.1548675E-1,-7.993509E-3,-6.875606E-2,3.5190634E-2,2.640734E-1,-1.0047147E-2,1.9252607E-1,-3.5691574E-2,8.9451295E-1,5.206028E-2,-5.5831607E-2,4.2353097E-1,1.5022962E-2],"split_indices":[10,3,6,5,17,4,19,3,3,39,8,8,8,18,8,4,8,2,9,5,25,2,6,38,28,12,2,8,9,1,11,8,40,2,1,2,2,3,0,43,10,2,7,2,3,52,12,1,5,52,1,52,40,11,2,11,5,26,49,4,53,9,13,0,0,0,0,0,0,0,0,0,0,0,0,0,0,0,0,0,0,0,0,0,0,0,0,0,0,0,0,0,0,0,0,0,0,0,0,0,0,0,0,0,0,0,0,0,0,0,0,0,0,0,0,0,0,0,0,0,0,0,0,0,0],"split_type":[0,0,0,0,0,0,0,0,0,0,0,0,0,0,0,0,0,0,0,0,0,0,0,0,0,0,0,0,0,0,0,0,0,0,0,0,0,0,0,0,0,0,0,0,0,0,0,0,0,0,0,0,0,0,0,0,0,0,0,0,0,0,0,0,0,0,0,0,0,0,0,0,0,0,0,0,0,0,0,0,0,0,0,0,0,0,0,0,0,0,0,0,0,0,0,0,0,0,0,0,0,0,0,0,0,0,0,0,0,0,0,0,0,0,0,0,0,0,0,0,0,0,0,0,0],"sum_hessian":[4.4709E4,2.0383E4,2.4326E4,3.33E2,2.005E4,1.521E4,9.116E3,2.92E2,4.1E1,5.728E3,1.4322E4,9.901E3,5.309E3,7.538E3,1.578E3,7.3E1,2.19E2,1.8E1,2.3E1,5.311E3,4.17E2,1.2286E4,2.036E3,9.785E3,1.16E2,5.186E3,1.23E2,4.727E3,2.811E3,1.306E3,2.72E2,4.1E1,3.2E1,2.15E2,4E0,2E0,1.6E1,1.3E1,1E1,5.176E3,1.35E2,3.6E2,5.7E1,6.878E3,5.408E3,1.451E3,5.85E2,7.734E3,2.051E3,8.3E1,3.3E1,4.479E3,7.07E2,4.4E1,7.9E1,3.487E3,1.24E3,2.727E3,8.4E1,1.3E3,6E0,2.13E2,5.9E1,2.2E1,1.9E1,3.1E1,1E0,4.4E1,1.71E2,1E0,3E0,1E0,1E0,1.4E1,2E0,8E0,5E0,5.132E3,4.4E1,3E0,1.32E2,2.28E2,1.32E2,7E0,5E1,3.071E3,3.807E3,2.249E3,3.159E3,1.351E3,1E2,5.31E2,5.4E1,7.631E3,1.03E2,1.999E3,5.2E1,6.4E1,1.9E1,2.8E1,5E0,3.717E3,7.62E2,6.66E2,4.1E1,3.5E1,9E0,3.9E1,4E1,3.266E3,2.21E2,1.236E3,4E0,2.611E3,1.16E2,7.2E1,1.2E1,1.293E3,7E0,5E0,1E0,1.34E2,7.9E1,3.9E1,2E1],"tree_param":{"num_deleted":"0","num_feature":"55","num_nodes":"125","size_leaf_vector":"0"}},{"base_weights":[-1.36953965E-2,-2.0020106E-1,-8.630649E-3,-4.2313734E-1,-1.5104063E-1,2.541112E-2,-4.2637628E-2,-4.7802395E-1,3.9118108E-1,-7.0765525E-2,-2.124706E-1,2.3345507E-3,1.545958E-1,-9.842583E-3,-7.62923E-2,-3.9371675E-1,-8.3879024E-1,8.741078E-2,1.4758686E0,-8.632093E-2,8.637795E-1,-1.8382493E-1,-4.345129E-1,3.1997707E-2,-4.0709045E-2,2.2546335E-1,-1.8211569E-3,2.7632382E-2,-8.463717E-2,-8.138788E-2,1.2635294E-1,-3.664194E-1,-6.2331605E-1,-1.1230212E0,-5.6875616E-1,3.0072162E-1,-1.7602034E-1,8.428651E-2,2.1295164E0,4.9383704E-2,-1.5834612E-1,2.2258312E-1,1.289031E0,-1.2005365E-1,-2.4114868E-1,-4.679055E-1,3.7817654E-1,-3.5372186E-2,1.05699584E-1,-2.6033333E-2,-1.3587107E-1,1.23545334E-1,3.7180358E-1,-9.148424E-3,1.0692667E0,-1.07678466E-1,5.2287288E-2,-7.155075E-2,-2.1223101E-1,-6.964532E-2,-1.3943507E-1,5.675614E-2,1.1342148E0,-3.4213123E-1,-5.941934E-1,-3.0143967E-1,-6.7440754E-1,-1.1648263E0,-2.270701E-1,-3.1276363E-1,-7.3468685E-1,5.4762816E-1,-2.1365322E-2,-2.7356356E-1,1.5584785E-1,-1.1403317E-2,4.2987275E-1,-2.1614748E-1,5.3990133E-2,-6.504243E-2,5.4272985E-1,-1.4977264E-1,6.459998E-2,-1.7719147E-1,-3.4078595E-1,-1.0378603E-1,-5.386537E-1,2.5467873E-3,5.64718E-1,-3.6455948E-2,2.0384545E0,-6.6383965E-2,1.3919407E-1,-7.1807116E-2,-7.6750037E-3,-1.4291258E-1,1.712911E-1,-2.0196062E-2,2.4385048E-1,1.2251026E-1,4.6364197E-1,6.773998E-2,-9.764778E-2,1.6925789E0,-3.2600924E-1,-3.8066074E-1,-9.366391E-2,9.806542E-2,-4.7785345E-2,-7.6071225E-2,2.1583208E-1,-1.7859429E-1,-3.6734703E-1,-7.182844E-2,4.7425726E-1,-1.4794886E-1,2.6172075E-1,2.0684011E-1,-1.2035121E-2,1.707755E0,7.090658E-2],"categories":[],"categories_nodes":[],"categories_segments":[],"categories_sizes":[],"default_left":[1,1,1,1,1,1,1,1,1,1,1,1,1,1,1,1,1,1,1,1,1,1,1,1,1,0,1,1,1,1,1,1,1,1,1,1,1,0,0,1,1,1,0,1,1,1,1,1,1,1,1,1,1,1,1,1,1,1,1,1,1,1,1,0,0,0,0,0,0,0,0,0,0,0,0,0,0,0,0,0,0,0,0,0,0,0,0,0,0,0,0,0,0,0,0,0,0,0,0,0,0,0,0,0,0,0,0,0,0,0,0,0,0,0,0,0,0,0,0,0,0],"id":10,"left_children":[1,3,5,7,9,11,13,15,17,19,21,23,25,27,29,31,33,35,37,39,41,43,45,47,49,51,53,55,57,59,61,63,65,67,69,71,73,-1,-1,75,77,79,-1,81,83,85,87,89,91,93,95,97,99,101,103,105,107,109,111,113,115,117,119,-1,-1,-1,-1,-1,-1,-1,-1,-1,-1,-1,-1,-1,-1,-1,-1,-1,-1,-1,-1,-1,-1,-1,-1,-1,-1,-1,-1,-1,-1,-1,-1,-1,-1,-1,-1,-1,-1,-1,-1,-1,-1,-1,-1,-1,-1,-1,-1,-1,-1,-1,-1,-1,-1,-1,-1,-1,-1],"loss_changes":[4.2231525E1,1.28903885E1,5.039277E1,9.707066E0,4.768324E0,6.485134E1,2.4033562E1,5.7527924E0,4.4839354E0,6.2092724E0,3.4120674E0,2.3568642E1,3.654728E1,3.0918598E1,1.1107578E1,7.994671E-1,2.2011013E0,7.272456E-1,2.5493245E0,4.073867E0,1.6217718E0,1.7549877E0,1.8594952E0,5.4264404E1,1.0514034E1,3.3795525E1,8.085525E0,2.4522455E1,6.132818E0,7.1364136E0,1.8453627E1,6.210079E-1,5.982876E-2,3.7224197E-1,6.622343E-1,5.683779E-1,2.3686323E-1,0E0,0E0,3.3585773E0,3.3500147E0,4.0363E-1,0E0,1.2883139E0,1.5709801E0,1.4897423E0,2.0877337E-1,1.2907726E1,3.0090767E1,5.4834437E0,2.200346E0,2.3160023E1,2.1258163E1,6.967694E0,6.6396437E0,4.29889E0,2.8485626E1,4.356735E0,1.718813E0,1.039061E1,6.0600014E0,2.5629568E0,1.0246359E1,0E0,0E0,0E0,0E0,0E0,0E0,0E0,0E0,0E0,0E0,0E0,0E0,0E0,0E0,0E0,0E0,0E0,0E0,0E0,0E0,0E0,0E0,0E0,0E0,0E0,0E0,0E0,0E0,0E0,0E0,0E0,0E0,0E0,0E0,0E0,0E0,0E0,0E0,0E0,0E0,0E0,0E0,0E0,0E0,0E0,0E0,0E0,0E0,0E0,0E0,0E0,0E0,0E0,0E0,0E0,0E0,0E0,0E0],"parents":[2147483647,0,0,1,1,2,2,3,3,4,4,5,5,6,6,7,7,8,8,9,9,10,10,11,11,12,12,13,13,14,14,15,15,16,16,17,17,18,18,19,19,20,20,21,21,22,22,23,23,24,24,25,25,26,26,27,27,28,28,29,29,30,30,31,31,32,32,33,33,34,34,35,35,36,36,39,39,40,40,41,41,43,43,44,44,45,45,46,46,47,47,48,48,49,49,50,50,51,51,52,52,53,53,54,54,55,55,56,56,57,57,58,58,59,59,60,60,61,61,62,62],"right_children":[2,4,6,8,10,12,14,16,18,20,22,24,26,28,30,32,34,36,38,40,42,44,46,48,50,52,54,56,58,60,62,64,66,68,70,72,74,-1,-1,76,78,80,-1,82,84,86,88,90,92,94,96,98,100,102,104,106,108,110,112,114,116,118,120,-1,-1,-1,-1,-1,-1,-1,-1,-1,-1,-1,-1,-1,-1,-1,-1,-1,-1,-1,-1,-1,-1,-1,-1,-1,-1,-1,-1,-1,-1,-1,-1,-1,-1,-1,-1,-1,-1,-1,-1,-1,-1,-1,-1,-1,-1,-1,-1,-1,-1,-1,-1,-1,-1,-1,-1,-1,-1],"split_conditions":[-2.0894494E0,-2.8697376E0,9.889397E-2,2.3722887E0,1.6363958E-1,1.664457E-1,5.3872187E-2,8.950374E-1,7.8783387E-1,5.4297147E0,8.950374E-1,5.7521075E-1,1.8674058E-1,1.0162287E0,3.6932096E0,-2.1468583E-1,-3.0658846E0,-3.098555E0,-1.9327176E-1,-6.706706E-1,-8.438051E-3,-1.013438E0,2.2148943E0,-6.518871E-1,1.523267E0,5.052171E-1,3.5258887E0,-1.3788512E0,-2.1468583E-1,2.1136838E-1,2.7224653E0,1.314986E0,-7.024543E-1,4.100245E-1,2.1135175E-1,-4.6235296E-1,-2.6279928E-3,2.5285954E-2,6.388549E-1,1.2561564E0,7.074171E-1,1.5539802E0,3.8670933E-1,1.7601991E0,2.6401448E-1,-1.044178E-1,-1.7760134E-1,9.860775E-2,-1.3989439E0,-5.744245E-1,3.5258887E0,2.9834667E-1,-5.787655E-1,4.2629063E-1,-3.1373796E-1,-2.7053738E0,-3.4585267E-1,2.4422417E0,1.314986E0,4.3461018E0,3.337078E0,-3.632763E-1,4.2629063E-1,-1.0263937E-1,-1.7825803E-1,-9.043191E-2,-2.0232227E-1,-3.494479E-1,-6.812103E-2,-9.3829095E-2,-2.2040607E-1,1.6428846E-1,-6.409597E-3,-8.206907E-2,4.6754356E-2,-3.420995E-3,1.2896183E-1,-6.484425E-2,1.619704E-2,-1.951273E-2,1.6281897E-1,-4.4931795E-2,1.9379996E-2,-5.315744E-2,-1.0223579E-1,-3.113581E-2,-1.615961E-1,7.640362E-4,1.6941541E-1,-1.0936785E-2,6.115364E-1,-1.991519E-2,4.1758224E-2,-2.1542136E-2,-2.3025011E-3,-4.2873777E-2,5.1387332E-2,-6.0588187E-3,7.315515E-2,3.675308E-2,1.390926E-1,2.0321995E-2,-2.9294334E-2,5.077737E-1,-9.780278E-2,-1.1419823E-1,-2.8099174E-2,2.9419627E-2,-1.4335604E-2,-2.2821369E-2,6.474963E-2,-5.357829E-2,-1.10204116E-1,-2.1548532E-2,1.4227718E-1,-4.438466E-2,7.851623E-2,6.2052038E-2,-3.6105365E-3,5.1232654E-1,2.1271974E-2],"split_indices":[3,3,3,8,53,5,2,5,2,33,5,2,25,3,34,11,3,3,1,8,13,2,8,2,2,10,40,2,11,9,4,12,2,2,29,9,7,0,0,51,6,1,0,8,4,16,1,3,3,17,40,18,2,52,9,2,6,8,12,43,4,9,52,0,0,0,0,0,0,0,0,0,0,0,0,0,0,0,0,0,0,0,0,0,0,0,0,0,0,0,0,0,0,0,0,0,0,0,0,0,0,0,0,0,0,0,0,0,0,0,0,0,0,0,0,0,0,0,0,0,0],"split_type":[0,0,0,0,0,0,0,0,0,0,0,0,0,0,0,0,0,0,0,0,0,0,0,0,0,0,0,0,0,0,0,0,0,0,0,0,0,0,0,0,0,0,0,0,0,0,0,0,0,0,0,0,0,0,0,0,0,0,0,0,0,0,0,0,0,0,0,0,0,0,0,0,0,0,0,0,0,0,0,0,0,0,0,0,0,0,0,0,0,0,0,0,0,0,0,0,0,0,0,0,0,0,0,0,0,0,0,0,0,0,0,0,0,0,0,0,0,0,0,0,0],"sum_hessian":[4.4709E4,1.181E3,4.3528E4,2.12E2,9.69E2,2.1753E4,2.1775E4,1.99E2,1.3E1,4.21E2,5.48E2,1.8457E4,3.296E3,1.1029E4,1.0746E4,1.63E2,3.6E1,1.1E1,2E0,4.15E2,6E0,4.87E2,6.1E1,1.0927E4,7.53E3,2.268E3,1.028E3,7.348E3,3.681E3,1.0483E4,2.63E2,1.48E2,1.5E1,1.6E1,2E1,6E0,5E0,1E0,1E0,1.44E2,2.71E2,3E0,3E0,2.32E2,2.55E2,5.9E1,2E0,5.709E3,5.218E3,6.525E3,1.005E3,1.338E3,9.3E2,1.022E3,6E0,1.132E3,6.216E3,3.34E3,3.41E2,8.721E3,1.762E3,2.47E2,1.6E1,1.36E2,1.2E1,3E0,1.2E1,1.5E1,1E0,9E0,1.1E1,3E0,3E0,4E0,1E0,1.25E2,1.9E1,2.13E2,5.8E1,2E0,1E0,2E2,3.2E1,1.57E2,9.8E1,1E1,4.9E1,1E0,1E0,5.707E3,2E0,8.5E2,4.368E3,1.867E3,4.658E3,9.83E2,2.2E1,6.1E2,7.28E2,2.51E2,6.79E2,5.47E2,4.75E2,4E0,2E0,5.4E1,1.078E3,4.265E3,1.951E3,3.289E3,5.1E1,2.82E2,5.9E1,8.687E3,3.4E1,1.726E3,3.6E1,7.7E1,1.7E2,1E1,6E0],"tree_param":{"num_deleted":"0","num_feature":"55","num_nodes":"121","size_leaf_vector":"0"}},{"base_weights":[-9.550241E-3,-4.799502E-2,8.285318E-3,-5.7263184E-2,3.1505667E-2,-4.616023E-2,2.8113836E-2,-5.9497513E-2,1.5575339E-1,2.4234759E-2,1.0979059E0,-2.6510399E-2,-1.643746E-1,2.2326682E-3,8.755902E-2,-5.3802777E-2,-1.2879376E-1,1.0051632E0,-8.2598895E-2,2.241552E-2,1.3492576E0,2.3548143E0,-1.32502E-1,-5.432307E-2,2.38716E-2,-1.5995374E-1,-7.820895E-1,-2.148308E-3,4.3038964E-1,5.6851335E-2,2.1796341E-1,-1.0398116E-1,-4.7861267E-2,-1.1770894E-1,-6.980496E-1,1.0482157E0,-1.001544E-1,1.03966825E-1,-2.4436893E-1,5.4724988E-2,-4.372148E-2,5.2490854E-1,-5.924344E-1,-2.1398316E-1,-4.453594E-2,-7.303255E-3,1.8282014E-1,-1.6825914E-1,1.5710695E-1,-1.0491649E0,5.437193E-1,-1.2400252E-2,1.2143147E-1,1.3140907E0,-2.0138088E-1,-1.2117987E-1,7.309216E-2,2.8123665E-1,-6.1083395E-2,-1.0519848E-1,6.9483733E-1,-3.3487085E-2,-6.641656E-2,-1.3624004E-1,2.2052225E-1,-1.5123627E-1,-7.56949E-1,1.2738818E0,6.411709E-1,2.3379734E-1,1.3947581E-2,-4.1513854E-1,-1.7756146E-1,5.020096E-1,4.3544102E-2,-1.22343056E-1,1.66955E-2,1.291043E-1,6.582585E-1,-8.432553E-1,-2.2774234E-1,-1.6171381E-1,-4.8923382E-1,1.8589928E0,-4.5422073E-2,-1.200263E-2,6.873833E-1,1.4526005E-1,1.0381573E0,3.863844E-1,-1.7257357E-1,-1.1508448E-1,1.0678909E0,-1.2293968E0,-3.990569E-1,1.1909403E-2,-4.5409974E-2,-8.975981E-3,1.5463059E-1,2.0512345E0,1.0371801E0,-2.976917E-1,-1.7249335E-2,-4.3434924E-3,-1.7072241E-1,9.980023E-2,-5.482867E-2,3.458406E-2,3.6103812E-1,-1.3453905E-1,8.0040294E-1],"categories":[],"categories_nodes":[],"categories_segments":[],"categories_sizes":[],"default_left":[1,1,0,1,1,1,1,1,1,1,1,1,1,1,1,1,1,1,1,1,0,0,1,1,1,1,1,1,1,1,1,1,1,1,1,1,0,1,1,1,0,1,1,1,1,1,1,0,1,1,0,1,1,1,1,1,1,1,1,0,0,0,0,0,0,0,0,0,0,0,0,0,0,0,0,0,0,0,0,0,0,0,0,0,0,0,0,0,0,0,0,0,0,0,0,0,0,0,0,0,0,0,0,0,0,0,0,0,0,0,0],"id":11,"left_children":[1,3,5,7,9,11,13,15,17,19,21,23,25,27,29,31,33,35,37,39,-1,-1,41,43,45,47,49,51,53,55,57,59,61,63,65,67,-1,69,71,73,75,77,79,81,83,85,87,89,91,93,-1,95,97,99,101,103,105,107,109,-1,-1,-1,-1,-1,-1,-1,-1,-1,-1,-1,-1,-1,-1,-1,-1,-1,-1,-1,-1,-1,-1,-1,-1,-1,-1,-1,-1,-1,-1,-1,-1,-1,-1,-1,-1,-1,-1,-1,-1,-1,-1,-1,-1,-1,-1,-1,-1,-1,-1,-1,-1],"loss_changes":[3.0657333E1,1.0441887E1,3.2973667E1,6.049057E0,1.1448868E1,1.8936512E1,3.444552E1,4.949154E0,2.6807585E1,3.515649E0,1.5777118E1,9.800295E0,3.0481262E0,2.926068E1,2.7181606E1,3.4554787E0,5.931361E0,1.4850006E0,3.1642034E0,3.1435642E0,0E0,0E0,2.1251602E0,7.0316095E0,1.2329867E1,3.0679111E0,3.4031787E0,1.9565485E1,8.847545E1,1.5905624E1,2.2864296E1,1.2672291E0,2.766302E0,5.896703E0,4.6524715E-1,1.7551956E0,0E0,5.694141E-1,5.6517386E-1,4.919165E0,2.2963305E0,7.335746E-2,1.7384458E-1,3.6615505E0,7.2481937E0,6.801868E0,1.2956823E1,2.7611618E0,7.560125E0,3.2959175E-1,0E0,1.1443548E1,5.123083E0,1.134462E1,1.6441143E0,2.6619086E0,1.7221308E1,2.0753334E1,1.5295136E1,0E0,0E0,0E0,0E0,0E0,0E0,0E0,0E0,0E0,0E0,0E0,0E0,0E0,0E0,0E0,0E0,0E0,0E0,0E0,0E0,0E0,0E0,0E0,0E0,0E0,0E0,0E0,0E0,0E0,0E0,0E0,0E0,0E0,0E0,0E0,0E0,0E0,0E0,0E0,0E0,0E0,0E0,0E0,0E0,0E0,0E0,0E0,0E0,0E0,0E0,0E0,0E0],"parents":[2147483647,0,0,1,1,2,2,3,3,4,4,5,5,6,6,7,7,8,8,9,9,10,10,11,11,12,12,13,13,14,14,15,15,16,16,17,17,18,18,19,19,22,22,23,23,24,24,25,25,26,26,27,27,28,28,29,29,30,30,31,31,32,32,33,33,34,34,35,35,37,37,38,38,39,39,40,40,41,41,42,42,43,43,44,44,45,45,46,46,47,47,48,48,49,49,51,51,52,52,53,53,54,54,55,55,56,56,57,57,58,58],"right_children":[2,4,6,8,10,12,14,16,18,20,22,24,26,28,30,32,34,36,38,40,-1,-1,42,44,46,48,50,52,54,56,58,60,62,64,66,68,-1,70,72,74,76,78,80,82,84,86,88,90,92,94,-1,96,98,100,102,104,106,108,110,-1,-1,-1,-1,-1,-1,-1,-1,-1,-1,-1,-1,-1,-1,-1,-1,-1,-1,-1,-1,-1,-1,-1,-1,-1,-1,-1,-1,-1,-1,-1,-1,-1,-1,-1,-1,-1,-1,-1,-1,-1,-1,-1,-1,-1,-1,-1,-1,-1,-1,-1,-1],"split_conditions":[-3.9526019E-1,1.2561564E0,2.327051E-3,4.004486E0,2.4422417E0,7.067517E-1,3.0867255E-1,-2.4272019E-1,4.593208E0,5.180916E0,3.22963E-1,2.9834667E-1,3.8094044E0,3.1484456E0,1.664457E-1,-9.610833E-1,8.241935E0,1.1627555E0,2.6274042E0,-2.8401497E-1,4.047773E-1,7.064443E-1,7.7437675E-1,-1.5503834E0,1.6377811E0,3.9516907E0,3.4187913E-1,1.2561564E0,3.293397E0,-1.8158019E0,1.5147752E-1,3.8094044E0,2.8364116E-1,2.3023355E0,1.9454926E-1,8.950374E-1,-3.0046321E-2,-1.6164106E-1,4.445344E-3,-2.0706404E-2,1.2206277E-1,1.1343138E0,-1.5110483E0,6.5261223E-3,-1.5476433E0,3.9516907E0,1.6236291E0,-1.4584486E0,1.8411651E0,1.7077342E0,1.631158E-1,2.017391E-1,-9.040731E-1,2.6401448E-1,6.202475E-1,-1.1655056E0,-3.3929026E-1,-1.1359574E0,2.8364116E-1,-3.1559546E-2,2.0845121E-1,-1.0046126E-2,-1.9924968E-2,-4.087201E-2,6.615668E-2,-4.537088E-2,-2.2708471E-1,3.8216457E-1,1.9235128E-1,7.013921E-2,4.1842745E-3,-1.24541566E-1,-5.326844E-2,1.5060288E-1,1.30632315E-2,-3.670292E-2,5.00865E-3,3.8731292E-2,1.9747756E-1,-2.529766E-1,-6.83227E-2,-4.8514146E-2,-1.4677015E-1,5.576979E-1,-1.3626623E-2,-3.6007892E-3,2.06215E-1,4.3578018E-2,3.114472E-1,1.1591532E-1,-5.1772073E-2,-3.4525346E-2,3.2036728E-1,-3.6881906E-1,-1.1971708E-1,3.572821E-3,-1.3622993E-2,-2.6927944E-3,4.6389177E-2,6.153704E-1,3.1115404E-1,-8.930752E-2,-5.1748008E-3,-1.3030478E-3,-5.1216725E-2,2.994007E-2,-1.6448602E-2,1.03752185E-2,1.0831144E-1,-4.0361717E-2,2.4012089E-1],"split_indices":[14,51,10,11,8,9,8,11,11,4,28,18,5,1,5,3,41,3,1,9,0,0,1,3,8,4,2,51,1,3,1,5,50,8,3,5,0,3,15,7,10,0,2,1,3,4,5,10,31,8,0,2,2,4,3,2,6,3,50,0,0,0,0,0,0,0,0,0,0,0,0,0,0,0,0,0,0,0,0,0,0,0,0,0,0,0,0,0,0,0,0,0,0,0,0,0,0,0,0,0,0,0,0,0,0,0,0,0,0,0,0],"split_type":[0,0,0,0,0,0,0,0,0,0,0,0,0,0,0,0,0,0,0,0,0,0,0,0,0,0,0,0,0,0,0,0,0,0,0,0,0,0,0,0,0,0,0,0,0,0,0,0,0,0,0,0,0,0,0,0,0,0,0,0,0,0,0,0,0,0,0,0,0,0,0,0,0,0,0,0,0,0,0,0,0,0,0,0,0,0,0,0,0,0,0,0,0,0,0,0,0,0,0,0,0,0,0,0,0,0,0,0,0,0,0],"sum_hessian":[4.4709E4,1.4168E4,3.0541E4,1.2689E4,1.479E3,8.153E3,2.2388E4,1.2558E4,1.31E2,1.47E3,9E0,6.992E3,1.161E3,1.5598E4,6.79E3,1.1606E4,9.52E2,2.8E1,1.03E2,1.469E3,1E0,4E0,5E0,4.505E3,2.487E3,1.154E3,7E0,1.5441E4,1.57E2,5.497E3,1.293E3,1.227E3,1.0379E4,9.35E2,1.7E1,2.7E1,1E0,4.8E1,5.5E1,9.87E2,4.82E2,2E0,3E0,2.59E2,4.246E3,2.08E3,4.07E2,1.125E3,2.9E1,6E0,1E0,1.4259E4,1.182E3,6.5E1,9.2E1,4.59E2,5.038E3,1.054E3,2.39E2,1.226E3,1E0,5.85E3,4.529E3,8.87E2,4.8E1,2E0,1.5E1,1.6E1,1.1E1,1.9E1,2.9E1,1.4E1,4.1E1,2.3E1,9.64E2,2.09E2,2.73E2,1E0,1E0,1E0,2E0,2.19E2,4E1,1E0,4.245E3,2.067E3,1.3E1,3.91E2,1.6E1,8E0,1.117E3,2.3E1,6E0,4E0,2E0,8.212E3,6.047E3,2.4E2,9.42E2,1.6E1,4.9E1,6E1,3.2E1,1.37E2,3.22E2,4.168E3,8.7E2,2.58E2,7.96E2,2.21E2,1.8E1],"tree_param":{"num_deleted":"0","num_feature":"55","num_nodes":"111","size_leaf_vector":"0"}},{"base_weights":[-6.6052102E-3,-4.8774675E-2,7.71469E-3,-6.006143E-2,1.2435377E-1,-8.3982356E-2,1.8686334E-2,-7.3575385E-2,9.0478905E-2,5.1923648E-2,4.6351853E-1,-7.21295E-2,-3.6728334E-1,4.1050535E-2,-2.6887132E-2,-6.37163E-2,-1.9285761E-1,-3.3398363E-1,1.4186263E-1,-5.6616146E-2,1.8654759E-1,-1.3661352E-1,1.106653E0,-8.26386E-2,1.2234032E-1,-2.1514091E-1,-9.331818E-1,3.5020012E-2,5.8806306E-1,-7.731474E-2,-1.097325E-2,-1.3297142E-1,-5.4161556E-2,-1.4925513E-1,-4.0793183E-1,4.5138478E-1,-3.6449984E-1,2.9293683E-1,-8.803707E-3,-1.2259547E-2,-3.4000698E-1,1.5911148E-1,1.8752449E0,-2.2649811E-1,7.7002054E-1,8.575171E-1,2.241667E0,-7.7315986E-2,-2.7756226E-1,1.5329309E-2,1.3595157E0,-2.6867408E-1,1.0056169E0,-4.811271E-1,-1.2505691E0,2.4599923E-2,1.7514424E-1,7.615796E-1,2.18084E-1,-4.9258355E-2,-1.434031E-1,1.412956E-1,-2.0374745E-2,-1.6989776E-1,-2.4168037E-3,2.760032E0,-5.4864664E-2,-2.5162044E-1,-2.4501296E-2,-2.3358999E-1,-8.162694E-1,-6.368714E-1,-2.9877856E-1,6.706014E-1,4.4704963E-2,-6.8651813E-1,1.9905908E-2,-5.1082283E-2,1.8296462E-1,-3.7496713E-1,-1.0664507E-1,2.2163226E-1,-2.1186477E-1,2.8194115E0,-4.7862768E-1,4.0297233E-2,-3.3544615E-1,-3.0422947E-1,1.3832029E0,1.4590071E0,5.580498E-1,-1.354182E-1,2.520834E0,-8.167071E-2,3.2610548E-1,-3.3326256E-1,-3.1880848E-2,-2.533723E-1,1.4349018E-1,-1.7426625E-2,2.7389474E0,-2.9256856E-1,1.1679127E0,1.4926231E-1,1.18239E0,-5.230643E-1,3.202817E-2,-1.3534626E0,-3.192455E-1,3.2239947E-2,-2.1418394E-1,8.17988E-2,1.0953553E0,8.465103E-1,-1.8550956E-1,8.977531E-2,1.5931321E0,-7.8850105E-2,2.7131847E-1,-1.02600306E-1,-4.7273228E-1,5.011033E-2,9.9116504E-1,-1.4220166E-2,-1.2711877E-1],"categories":[],"categories_nodes":[],"categories_segments":[],"categories_sizes":[],"default_left":[1,1,1,1,1,1,1,1,1,0,1,1,1,1,1,1,1,1,1,1,1,1,1,1,1,1,1,1,1,1,1,1,1,1,1,0,1,1,1,1,1,1,1,1,1,1,1,1,1,1,1,1,1,1,1,1,1,1,1,1,1,1,1,0,0,0,0,0,0,0,0,0,0,0,0,0,0,0,0,0,0,0,0,0,0,0,0,0,0,0,0,0,0,0,0,0,0,0,0,0,0,0,0,0,0,0,0,0,0,0,0,0,0,0,0,0,0,0,0,0,0,0,0,0,0],"id":12,"left_children":[1,3,5,7,9,11,13,15,17,19,21,23,25,27,29,31,33,35,37,39,41,43,45,47,49,51,53,55,57,59,61,63,65,67,69,-1,71,73,75,77,79,81,83,85,87,89,91,93,95,97,99,101,103,105,107,109,111,113,115,117,119,121,123,-1,-1,-1,-1,-1,-1,-1,-1,-1,-1,-1,-1,-1,-1,-1,-1,-1,-1,-1,-1,-1,-1,-1,-1,-1,-1,-1,-1,-1,-1,-1,-1,-1,-1,-1,-1,-1,-1,-1,-1,-1,-1,-1,-1,-1,-1,-1,-1,-1,-1,-1,-1,-1,-1,-1,-1,-1,-1,-1,-1,-1,-1],"loss_changes":[2.699907E1,2.2154768E1,3.3581078E1,2.1654663E1,1.7024559E1,1.1951225E1,3.0384897E1,1.1471489E1,1.9175161E1,8.383269E0,4.723899E1,7.0097866E0,1.2111132E1,6.594824E1,7.8748765E0,5.9621277E0,6.9255524E0,2.4413433E0,1.7825066E1,3.9931722E0,1.1562438E1,5.3899236E0,1.4761314E1,3.3504276E0,2.3280045E1,7.7202E0,3.70261E0,2.8878061E1,1.3828964E1,4.357724E0,1.068371E1,5.268839E0,1.5840357E1,7.9242935E0,8.708117E0,0E0,1.4565725E0,3.6625645E1,7.660235E0,2.101188E0,3.10822E-1,5.9149685E0,1.0239239E1,1.7284608E0,4.3730783E0,8.192135E0,6.9774055E0,5.586878E0,1.166245E0,5.6495934E0,2.66393E1,4.1176114E0,5.804157E-1,3.1803656E-1,1.1969738E0,3.3598015E1,1.17504074E2,1.2061714E1,1.2383549E1,1.5711947E1,9.371222E0,3.3583412E1,4.6153393E0,0E0,0E0,0E0,0E0,0E0,0E0,0E0,0E0,0E0,0E0,0E0,0E0,0E0,0E0,0E0,0E0,0E0,0E0,0E0,0E0,0E0,0E0,0E0,0E0,0E0,0E0,0E0,0E0,0E0,0E0,0E0,0E0,0E0,0E0,0E0,0E0,0E0,0E0,0E0,0E0,0E0,0E0,0E0,0E0,0E0,0E0,0E0,0E0,0E0,0E0,0E0,0E0,0E0,0E0,0E0,0E0,0E0,0E0,0E0,0E0,0E0,0E0],"parents":[2147483647,0,0,1,1,2,2,3,3,4,4,5,5,6,6,7,7,8,8,9,9,10,10,11,11,12,12,13,13,14,14,15,15,16,16,17,17,18,18,19,19,20,20,21,21,22,22,23,23,24,24,25,25,26,26,27,27,28,28,29,29,30,30,31,31,32,32,33,33,34,34,36,36,37,37,38,38,39,39,40,40,41,41,42,42,43,43,44,44,45,45,46,46,47,47,48,48,49,49,50,50,51,51,52,52,53,53,54,54,55,55,56,56,57,57,58,58,59,59,60,60,61,61,62,62],"right_children":[2,4,6,8,10,12,14,16,18,20,22,24,26,28,30,32,34,36,38,40,42,44,46,48,50,52,54,56,58,60,62,64,66,68,70,-1,72,74,76,78,80,82,84,86,88,90,92,94,96,98,100,102,104,106,108,110,112,114,116,118,120,122,124,-1,-1,-1,-1,-1,-1,-1,-1,-1,-1,-1,-1,-1,-1,-1,-1,-1,-1,-1,-1,-1,-1,-1,-1,-1,-1,-1,-1,-1,-1,-1,-1,-1,-1,-1,-1,-1,-1,-1,-1,-1,-1,-1,-1,-1,-1,-1,-1,-1,-1,-1,-1,-1,-1,-1,-1,-1,-1,-1,-1,-1,-1],"split_conditions":[-5.744245E-1,3.5258887E0,-1.0092804E0,3.234371E0,1.8674058E-1,8.950374E-1,-3.5241508E-1,1.8411651E0,-1.2800522E0,5.6508493E-1,-3.3839348E-1,1.9525701E0,1.1229171E-1,2.337312E0,1.8674058E-1,-1.258024E0,1.314986E0,-1.7896496E0,-2.3287143E-1,9.589095E-3,1.709257E0,2.6401448E-1,7.466577E-1,-1.2275486E-1,-1.1883725E-1,3.234371E0,-4.3291867E-2,1.8411651E0,1.6363958E-1,7.665169E-1,1.508088E-2,-3.3929026E-1,-1.2569125E0,-2.641996E-1,4.9165443E-1,1.3541543E-1,-5.4825276E-1,3.3995277E-1,-2.1530788E-1,-1.0254836E-1,2.1099644E0,9.371894E-1,6.409497E-1,-1.6976613E-1,-3.0324847E-1,-3.4856978E-1,-1.7368373E-1,-1.3058273E-1,1.5931273E-1,-1.066219E0,1.2810434E0,3.6443844E0,-1.3842529E-1,5.8232756E0,1.8301522E0,1.0525267E0,4.004486E0,1.8492639E0,3.6932096E0,1.436423E-1,8.950374E-1,2.2323823E0,8.950374E-1,-5.0969332E-2,-7.2504114E-4,8.280096E-1,-1.64594E-2,-7.548614E-2,-7.350389E-3,-7.0077E-2,-2.4488083E-1,-1.9106142E-1,-8.963357E-2,2.0118044E-1,1.3411489E-2,-2.0595545E-1,5.9717726E-3,-1.5324686E-2,5.488939E-2,-1.1249014E-1,-3.1993523E-2,6.648968E-2,-6.3559435E-2,8.4582347E-1,-1.435883E-1,1.20891705E-2,-1.0063385E-1,-9.1268845E-2,4.149609E-1,4.3770215E-1,1.6741495E-1,-4.0625464E-2,7.562502E-1,-2.4501214E-2,9.7831644E-2,-9.9978775E-2,-9.564254E-3,-7.6011695E-2,4.3047056E-2,-5.2279877E-3,8.2168424E-1,-8.7770574E-2,3.5037383E-1,4.4778693E-2,3.5471702E-1,-1.569193E-1,9.608451E-3,-4.060388E-1,-9.577365E-2,9.671984E-3,-6.4255185E-2,2.453964E-2,3.286066E-1,2.539531E-1,-5.565287E-2,2.6932593E-2,4.7793967E-1,-2.3655033E-2,8.1395544E-2,-3.0780094E-2,-1.4181969E-1,1.5033099E-2,2.973495E-1,-4.26605E-3,-3.8135633E-2],"split_indices":[17,40,42,39,25,5,6,31,3,10,8,8,9,8,25,3,12,2,3,11,2,4,2,1,1,39,4,31,53,11,6,6,3,9,2,0,8,2,3,11,8,2,8,1,3,3,1,11,1,3,30,4,1,37,8,1,11,2,34,1,5,8,5,0,0,0,0,0,0,0,0,0,0,0,0,0,0,0,0,0,0,0,0,0,0,0,0,0,0,0,0,0,0,0,0,0,0,0,0,0,0,0,0,0,0,0,0,0,0,0,0,0,0,0,0,0,0,0,0,0,0,0,0,0,0],"split_type":[0,0,0,0,0,0,0,0,0,0,0,0,0,0,0,0,0,0,0,0,0,0,0,0,0,0,0,0,0,0,0,0,0,0,0,0,0,0,0,0,0,0,0,0,0,0,0,0,0,0,0,0,0,0,0,0,0,0,0,0,0,0,0,0,0,0,0,0,0,0,0,0,0,0,0,0,0,0,0,0,0,0,0,0,0,0,0,0,0,0,0,0,0,0,0,0,0,0,0,0,0,0,0,0,0,0,0,0,0,0,0,0,0,0,0,0,0,0,0,0,0,0,0,0,0],"sum_hessian":[4.4709E4,1.1333E4,3.3376E4,1.064E4,6.93E2,3.566E3,2.981E4,9.764E3,8.76E2,5.72E2,1.21E2,3.424E3,1.42E2,1.9997E4,9.813E3,9.02E3,7.44E2,9.4E1,7.82E2,3.17E2,2.55E2,6.3E1,5.8E1,3.249E3,1.75E2,1.13E2,2.9E1,1.978E4,2.17E2,2.353E3,7.46E3,1.092E3,7.928E3,6.2E2,1.24E2,3E0,9.1E1,3.9E2,3.92E2,2.75E2,4.2E1,2.52E2,3E0,5.8E1,5E0,4.9E1,9E0,3.164E3,8.5E1,1.62E2,1.3E1,1.09E2,4E0,1.3E1,1.6E1,1.8412E4,1.368E3,1.47E2,7E1,1.653E3,7E2,4.33E2,7.027E3,8.51E2,2.41E2,1E0,7.927E3,3.4E2,2.8E2,8.8E1,3.6E1,1.6E1,7.5E1,1.54E2,2.36E2,1.5E1,3.77E2,2.3E2,4.5E1,3.6E1,6E0,2.16E2,3.6E1,2E0,1E0,1.7E1,4.1E1,2E0,3E0,1.5E1,3.4E1,1E0,8E0,3.131E3,3.3E1,6.9E1,1.6E1,5.2E1,1.1E2,7E0,6E0,1.08E2,1E0,1E0,3E0,1.2E1,1E0,1.4E1,2E0,1.7842E4,5.7E2,1.243E3,1.25E2,1.35E2,1.2E1,6.5E1,5E0,1.514E3,1.39E2,6.24E2,7.6E1,3.92E2,4.1E1,6.645E3,3.82E2],"tree_param":{"num_deleted":"0","num_feature":"55","num_nodes":"125","size_leaf_vector":"0"}},{"base_weights":[-4.5273667E-3,-2.1272046E-2,2.557876E-2,-1.7235767E-2,-1.3789041E-1,1.0288511E-2,1.2231413E-1,-1.5391809E-1,-1.3778587E-2,-1.12977825E-1,-2.5151283E-1,2.0353075E-2,-6.706753E-2,7.7864945E-2,7.109748E-1,-1.6505124E-1,3.219022E-1,-1.5084644E-2,3.7384123E-1,-1.1802788E-1,5.665678E-1,-4.9115327E-1,-1.9947979E-1,-2.3602644E-2,4.604069E-2,-3.910155E-2,-2.4560776E-1,-6.959499E-2,1.1513699E-1,9.9522704E-1,-1.754523E-1,-1.3843371E-1,-3.2275984E-1,1.1213732E0,-1.4343673E-1,3.2761914E-3,-3.647447E-2,2.2658041E-1,1.1675915E0,-7.512342E-2,-1.9821821E-1,1.13133974E-1,7.650012E-1,-2.6839185E-1,-7.265669E-1,-1.3164318E-1,-3.0884674E-1,-1.8677345E-2,-3.103852E-1,1.13572635E-1,6.2000235E-3,-4.4473067E-2,2.932683E-1,-1.08857974E-1,-3.9051515E-1,-4.4145953E-2,-2.3305428E-1,9.0722315E-2,3.2148865E-1,1.6131353E0,6.6131073E-1,-2.3113896E-1,9.42477E-1,-1.24377765E-1,-3.0944264E-1,-4.4069746E-1,-3.508686E-2,2.4416823E0,3.6897486E-1,-3.9482683E-1,6.585458E-1,-8.51175E-3,9.7011186E-2,-2.5357414E-2,-1.3952902E-1,1.1669526E0,5.4773744E-2,9.709811E-2,1.3379154E0,-2.0369826E-2,-1.094753E-1,-7.447363E-2,-2.4822517E-1,3.3536535E-2,1.3616443E-1,-4.0952015E-1,-1.754617E-1,-8.2281435E-1,-9.9388085E-2,8.984008E-2,-1.807455E-1,-1.7920685E-1,-4.892681E-1,-9.592922E-2,-3.3097018E-3,-4.040087E-1,2.7957258E-1,2.3281814E-1,1.2498606E-2,6.625019E-2,-1.391758E-2,-3.4688167E-2,-2.2619638E-1,4.029545E-2,2.802849E0,-1.4637424E-1,3.971502E-1,-6.237886E-1,-3.1273577E-1,-1.6291603E-1,-1.186598E-2,-1.3247007E-1,-6.2334836E-1,-1.0890873E-1,1.049568E-1,1.2908544E-1,6.941176E-1,3.8399288E-1,2.0661206E0,1.0387808E0,6.768477E-2,-3.7727654E-1,-3.7019677E-2],"categories":[],"categories_nodes":[],"categories_segments":[],"categories_sizes":[],"default_left":[1,1,1,1,1,1,1,1,1,1,1,1,1,1,1,1,1,1,1,1,1,1,1,1,1,1,1,1,1,1,1,1,1,1,1,1,1,1,1,1,1,1,0,1,1,1,1,1,1,1,1,1,1,1,1,1,1,1,1,1,1,1,0,0,0,0,0,0,0,0,0,0,0,0,0,0,0,0,0,0,0,0,0,0,0,0,0,0,0,0,0,0,0,0,0,0,0,0,0,0,0,0,0,0,0,0,0,0,0,0,0,0,0,0,0,0,0,0,0,0,0,0,0],"id":13,"left_children":[1,3,5,7,9,11,13,15,17,19,21,23,25,27,29,31,33,35,37,39,41,43,45,47,49,51,53,55,57,59,61,63,65,67,69,71,73,75,77,79,81,83,-1,85,87,89,91,93,95,97,99,101,103,105,107,109,111,113,115,117,119,121,-1,-1,-1,-1,-1,-1,-1,-1,-1,-1,-1,-1,-1,-1,-1,-1,-1,-1,-1,-1,-1,-1,-1,-1,-1,-1,-1,-1,-1,-1,-1,-1,-1,-1,-1,-1,-1,-1,-1,-1,-1,-1,-1,-1,-1,-1,-1,-1,-1,-1,-1,-1,-1,-1,-1,-1,-1,-1,-1,-1,-1],"loss_changes":[2.2539635E1,1.352143E1,2.3634886E1,1.312066E1,2.6918182E0,1.074542E1,5.7011578E1,3.6818314E0,1.3718533E1,2.7779484E0,2.046731E0,1.3789871E1,7.924356E0,1.1159664E1,3.8725853E1,2.7678547E0,6.1132455E0,1.0602787E1,1.0372281E1,2.6859207E0,4.5331073E-1,1.3782277E0,1.0202718E0,6.357469E0,2.0737808E1,2.4678717E0,4.2179394E0,1.6952628E0,8.132408E0,2.2867455E1,2.5834856E0,1.3436337E0,3.2415743E0,5.059471E0,2.4777267E0,1.6053432E1,1.4282885E1,1.2537933E1,2.4227238E0,9.626663E-1,1.6708612E0,9.3301013E-4,0E0,1.51101E-1,7.633233E-1,9.9501884E-1,1.1753693E0,5.2588863E0,4.310727E0,3.4467594E1,5.8588314E0,2.3997614E0,1.3853886E1,2.1842885E0,1.6918812E0,1.3629336E0,2.0765827E0,4.131815E0,1.2170246E1,2.1477966E1,1.7183544E1,1.0356538E0,0E0,0E0,0E0,0E0,0E0,0E0,0E0,0E0,0E0,0E0,0E0,0E0,0E0,0E0,0E0,0E0,0E0,0E0,0E0,0E0,0E0,0E0,0E0,0E0,0E0,0E0,0E0,0E0,0E0,0E0,0E0,0E0,0E0,0E0,0E0,0E0,0E0,0E0,0E0,0E0,0E0,0E0,0E0,0E0,0E0,0E0,0E0,0E0,0E0,0E0,0E0,0E0,0E0,0E0,0E0,0E0,0E0,0E0,0E0,0E0,0E0],"parents":[2147483647,0,0,1,1,2,2,3,3,4,4,5,5,6,6,7,7,8,8,9,9,10,10,11,11,12,12,13,13,14,14,15,15,16,16,17,17,18,18,19,19,20,20,21,21,22,22,23,23,24,24,25,25,26,26,27,27,28,28,29,29,30,30,31,31,32,32,33,33,34,34,35,35,36,36,37,37,38,38,39,39,40,40,41,41,43,43,44,44,45,45,46,46,47,47,48,48,49,49,50,50,51,51,52,52,53,53,54,54,55,55,56,56,57,57,58,58,59,59,60,60,61,61],"right_children":[2,4,6,8,10,12,14,16,18,20,22,24,26,28,30,32,34,36,38,40,42,44,46,48,50,52,54,56,58,60,62,64,66,68,70,72,74,76,78,80,82,84,-1,86,88,90,92,94,96,98,100,102,104,106,108,110,112,114,116,118,120,122,-1,-1,-1,-1,-1,-1,-1,-1,-1,-1,-1,-1,-1,-1,-1,-1,-1,-1,-1,-1,-1,-1,-1,-1,-1,-1,-1,-1,-1,-1,-1,-1,-1,-1,-1,-1,-1,-1,-1,-1,-1,-1,-1,-1,-1,-1,-1,-1,-1,-1,-1,-1,-1,-1,-1,-1,-1,-1,-1,-1,-1],"split_conditions":[2.9834667E-1,2.1730864E0,1.1343138E0,-2.2081535E0,-1.586171E-1,1.2101905E0,-1.3061905E-2,3.9516907E0,3.0808125E0,4.5663033E0,-1.8099904E-1,-5.666934E-1,-2.4272019E-1,-9.6598184E-1,-4.3444544E-1,8.786272E-1,3.4649098E-1,2.2579126E-1,1.1321132E0,2.6401448E-1,1.1343138E0,8.786272E-1,1.9138147E-1,4.3461018E0,-2.2958888E-1,2.4422417E0,2.6401448E-1,-1.075207E0,1.497875E0,3.460015E-1,2.415159E0,1.314986E0,9.2190135E-1,-1.8935415E-1,6.705734E0,8.786272E-1,-7.4514E-2,-1.0299983E0,-1.2121315E0,-1.5476419E-2,-4.6081138E-1,-1.7760134E-1,2.2950037E-1,4.445344E-3,4.5663033E0,1.5127811E-1,8.786272E-1,-1.7166883E0,4.445344E-3,3.4163833E-1,-1.1105867E-1,1.314986E0,1.4046202E0,2.0499194E0,-8.438051E-3,-1.9594953E0,-2.4272019E-1,-1.6474128E0,2.6401448E-1,-1.4895922E-2,3.3073751E-3,7.865016E-1,2.827431E-1,-3.731333E-2,-9.28328E-2,-1.3220924E-1,-1.0526058E-2,7.325047E-1,1.10692464E-1,-1.1844806E-1,1.9756375E-1,-2.5535251E-3,2.9103357E-2,-7.6072244E-3,-4.1858707E-2,3.500858E-1,1.6432123E-2,2.9129434E-2,4.0137464E-1,-6.110948E-3,-3.284259E-2,-2.234209E-2,-7.4467555E-2,1.006096E-2,4.0849328E-2,-1.2285605E-1,-5.2638512E-2,-2.468443E-1,-2.9816426E-2,2.6952025E-2,-5.4223653E-2,-5.3762056E-2,-1.4678043E-1,-2.8778767E-2,-9.929106E-4,-1.2120261E-1,8.3871774E-2,6.9845445E-2,3.749582E-3,1.9875057E-2,-4.175274E-3,-1.040645E-2,-6.785892E-2,1.2088635E-2,8.4085476E-1,-4.3912273E-2,